#ifndef TINY_MLP_WEIGHTS_H
#define TINY_MLP_WEIGHTS_H

static const float fc1_weights[25088] = {
    0.027304949f,     -0.018812109f,     -0.000784695f,     0.010030074f,     0.014856216f,     -0.014709635f,     0.022772076f,     -0.011579135f,
    -0.023024151f,     0.017638236f,     -0.009314312f,     0.023752486f,     -0.015907986f,     -0.031262178f,     -0.030102275f,     -0.015024522f,
    0.021448413f,     0.017039530f,     -0.001428740f,     0.007996781f,     -0.000735432f,     -0.034388442f,     -0.019799152f,     0.004737556f,
    0.028578844f,     0.030717362f,     0.018150207f,     0.008741294f,     -0.035239168f,     -0.002270886f,     0.016738262f,     -0.011780850f,
    0.029643141f,     -0.035413541f,     0.001653386f,     0.027348038f,     -0.012556038f,     0.006663246f,     0.000451386f,     0.027269740f,
    0.025673961f,     -0.014680834f,     0.028255736f,     0.015251697f,     0.021642767f,     -0.019434243f,     -0.031522430f,     -0.016688263f,
    0.028936507f,     -0.016173687f,     0.000843052f,     -0.007501994f,     0.004384867f,     -0.035126843f,     0.002326127f,     0.028937226f,
    0.016958332f,     0.014278719f,     -0.030392304f,     -0.024787750f,     -0.017120933f,     0.007081100f,     -0.032443363f,     0.011911044f,
    -0.008366874f,     0.018694086f,     0.004524542f,     -0.008068336f,     0.010894639f,     0.031117871f,     0.011917230f,     -0.034400359f,
    0.029060872f,     0.005254639f,     -0.003261213f,     -0.033271004f,     -0.029913411f,     -0.023103915f,     -0.016771084f,     -0.002751908f,
    0.010673387f,     0.017003022f,     -0.019775337f,     0.019004457f,     0.000999421f,     -0.025065441f,     0.017798429f,     -0.027880671f,
    -0.024862133f,     -0.021265453f,     -0.000534028f,     -0.009665724f,     0.006008910f,     0.033015769f,     0.008635338f,     -0.007982638f,
    0.032807548f,     0.008519169f,     0.013300654f,     0.002556741f,     0.002133736f,     0.016311843f,     0.035229284f,     0.012688748f,
    0.024346871f,     -0.019373303f,     0.025469733f,     0.025991548f,     -0.025602359f,     0.017432818f,     -0.018672634f,     -0.006976430f,
    0.028449779f,     0.010599694f,     -0.013323184f,     0.031989910f,     0.027019009f,     -0.005361289f,     0.017090250f,     -0.017777184f,
    -0.018792516f,     0.014282870f,     0.032304984f,     -0.019440604f,     -0.025521811f,     -0.031504467f,     -0.032617390f,     0.009594462f,
    -0.007825128f,     -0.018163856f,     -0.010835763f,     0.023081768f,     -0.023445195f,     0.034956034f,     -0.011635563f,     -0.032543540f,
    -0.000646400f,     -0.016976260f,     0.001734525f,     0.004336042f,     0.034025960f,     0.032744955f,     -0.033663750f,     0.024148734f,
    -0.017016953f,     0.035155699f,     -0.014228822f,     -0.012781603f,     -0.020456988f,     0.022202617f,     0.029893996f,     0.032261904f,
    -0.015078579f,     -0.000311158f,     -0.029528828f,     -0.021024637f,     -0.019379092f,     0.024172312f,     0.015283773f,     0.007953210f,
    0.007206811f,     0.034417927f,     -0.021296345f,     0.015535381f,     -0.024010506f,     -0.015127476f,     -0.014533158f,     0.015482571f,
    0.008779284f,     0.023306260f,     0.003708933f,     -0.008906394f,     -0.013458163f,     0.012495739f,     0.005576236f,     0.016652567f,
    -0.023366746f,     0.018268634f,     -0.005862266f,     0.000607188f,     0.016172316f,     -0.010869304f,     -0.004424674f,     0.027882041f,
    0.009906450f,     -0.007373874f,     0.035408378f,     -0.022749271f,     -0.014516231f,     0.029096123f,     -0.011595956f,     -0.028601483f,
    -0.017387681f,     -0.016151715f,     0.008425879f,     0.004588847f,     -0.034883033f,     -0.017054653f,     0.025925340f,     0.008746599f,
    0.001816554f,     -0.009781536f,     -0.030165495f,     -0.010621293f,     -0.028397553f,     -0.019988056f,     -0.002833609f,     0.027511761f,
    -0.028685750f,     0.005513962f,     -0.023499928f,     0.029279608f,     0.032893050f,     -0.014749669f,     0.018409980f,     0.013525376f,
    0.019251926f,     -0.035158649f,     0.028274717f,     -0.015234654f,     0.017843762f,     0.029596761f,     0.011793078f,     -0.008370775f,
    0.020974381f,     0.024133814f,     -0.004228771f,     0.010974238f,     -0.019977910f,     -0.004534696f,     0.013657111f,     -0.014053566f,
    -0.013565145f,     -0.031294100f,     -0.012342403f,     0.028487638f,     -0.026107909f,     0.027032390f,     -0.007865408f,     0.027984211f,
    -0.005647085f,     -0.035350721f,     0.020714182f,     -0.006116080f,     -0.025652517f,     0.023765786f,     -0.002834214f,     -0.030235799f,
    -0.001687105f,     -0.023541214f,     -0.009361323f,     0.006229273f,     0.015648583f,     0.012459385f,     0.013764821f,     0.032225590f,
    0.031483676f,     0.018118877f,     -0.016179571f,     0.001853802f,     0.009976941f,     -0.007192851f,     -0.033711024f,     0.010548950f,
    -0.035363432f,     0.001500185f,     0.001790702f,     0.024922257f,     0.034632068f,     0.033149865f,     -0.001659602f,     0.030498613f,
    -0.003531984f,     0.029066160f,     -0.000900750f,     0.005402574f,     -0.027973253f,     0.028643176f,     0.004718125f,     0.019627376f,
    -0.035139427f,     -0.012136447f,     0.011658481f,     -0.001070861f,     -0.013639974f,     -0.011098416f,     0.001394434f,     -0.000219286f,
    -0.026201006f,     -0.029943148f,     0.014998679f,     -0.030635422f,     0.002175923f,     -0.015709635f,     0.012702244f,     0.034277540f,
    -0.004365308f,     -0.005091263f,     0.016318088f,     -0.003317514f,     -0.004994865f,     -0.009676585f,     0.017162319f,     -0.033928264f,
    -0.020299686f,     0.030664172f,     0.027471058f,     -0.013853733f,     0.012070571f,     0.018820614f,     -0.020974539f,     -0.002269668f,
    -0.022637300f,     0.026627781f,     -0.009532435f,     0.016073968f,     -0.018140534f,     -0.024288571f,     0.004449674f,     0.033857897f,
    0.031042721f,     0.023033621f,     0.000323896f,     0.001376825f,     0.026860788f,     -0.002217365f,     -0.035026938f,     0.021743124f,
    0.015446561f,     0.010153119f,     0.006929679f,     -0.013350594f,     -0.030052761f,     0.026353501f,     -0.013252617f,     -0.008091791f,
    -0.012213865f,     -0.009899561f,     -0.022928132f,     0.008948561f,     -0.012678424f,     0.030862281f,     0.022104613f,     -0.027450349f,
    -0.017076863f,     -0.024539638f,     -0.018621905f,     0.015632519f,     0.007191828f,     0.026219612f,     -0.013076446f,     0.026990373f,
    0.006684261f,     -0.032838322f,     -0.005195166f,     -0.007806391f,     -0.031404089f,     0.032265000f,     -0.019390099f,     -0.032588132f,
    0.020832591f,     -0.018218603f,     -0.007754156f,     -0.019201454f,     -0.005148211f,     0.009028827f,     0.002256266f,     -0.003414767f,
    -0.011501449f,     -0.002792916f,     0.009917865f,     -0.014738859f,     -0.000805450f,     -0.032202870f,     0.008127439f,     0.027977923f,
    -0.024040742f,     -0.033416878f,     0.021480672f,     -0.010029534f,     0.010475244f,     0.008452122f,     0.001163627f,     -0.010022650f,
    0.026386032f,     -0.019786239f,     -0.017288707f,     0.032228995f,     -0.001043635f,     -0.019577062f,     0.013976570f,     -0.009255623f,
    0.008494263f,     0.001538264f,     0.000241122f,     0.020588828f,     -0.017409801f,     -0.024842447f,     -0.003190168f,     0.025575524f,
    0.034443915f,     -0.001391411f,     -0.011713663f,     -0.031328578f,     -0.033315174f,     -0.031849988f,     0.007159021f,     -0.024426777f,
    0.018386960f,     -0.026136169f,     0.005295967f,     0.025191193f,     0.031898767f,     0.027595023f,     0.020599980f,     -0.016152719f,
    0.004836807f,     -0.005954104f,     -0.004698783f,     0.032236706f,     -0.032023210f,     0.020056535f,     0.018813394f,     0.032395899f,
    0.016285939f,     -0.017619308f,     0.030701004f,     -0.021658685f,     -0.023956666f,     -0.009327953f,     0.017246209f,     -0.000296997f,
    -0.002550376f,     -0.002180819f,     0.018922871f,     -0.031308737f,     0.021815391f,     0.005933851f,     -0.002736871f,     0.005820424f,
    0.001593654f,     0.011486080f,     0.012780420f,     -0.024847563f,     0.025551163f,     0.021808978f,     0.029359074f,     0.011781237f,
    0.017221004f,     -0.024073090f,     -0.030368755f,     0.007085379f,     0.000209059f,     0.016590919f,     -0.008064104f,     0.005525432f,
    0.022355592f,     -0.021584397f,     0.023823697f,     -0.023676855f,     -0.017476697f,     -0.028483337f,     -0.003799422f,     0.013538294f,
    0.028953465f,     0.019414686f,     -0.014281082f,     0.015685959f,     -0.002357964f,     -0.029964920f,     0.014453433f,     -0.019458963f,
    -0.025488872f,     -0.031846281f,     0.032412335f,     -0.020232398f,     -0.009750111f,     -0.019156117f,     -0.010044664f,     -0.005897586f,
    -0.005042536f,     0.034889638f,     0.008124654f,     0.031921543f,     0.013012023f,     0.020682782f,     0.030230936f,     0.004403021f,
    -0.006904440f,     0.008164036f,     0.012186379f,     -0.021432532f,     0.027050901f,     0.010775963f,     0.012829206f,     -0.003319310f,
    0.003440304f,     0.004827376f,     -0.017712338f,     -0.005363507f,     0.002195703f,     -0.009969567f,     -0.034495916f,     0.030277602f,
    -0.021666341f,     -0.035700612f,     -0.004447728f,     0.034573574f,     -0.002850154f,     0.023793412f,     0.008262200f,     -0.004610296f,
    0.027531639f,     -0.007163559f,     0.000535952f,     -0.018393535f,     -0.032037266f,     0.009635044f,     0.035492286f,     0.002548124f,
    0.023321357f,     0.011038806f,     -0.025738444f,     0.010369837f,     0.014406175f,     0.019749604f,     -0.013983549f,     -0.035040528f,
    0.012726269f,     -0.031060612f,     0.002838778f,     0.006233467f,     -0.012414635f,     0.021739757f,     0.029185297f,     0.001111886f,
    -0.026092522f,     0.000988292f,     -0.003961078f,     0.017200615f,     0.019339276f,     0.002982195f,     0.008561876f,     -0.002441453f,
    0.005278890f,     0.014185349f,     0.021672731f,     0.031041916f,     0.031541161f,     -0.013193395f,     0.027849097f,     -0.012556622f,
    -0.000750154f,     0.006607171f,     -0.012008595f,     0.027377525f,     0.020867443f,     -0.035127610f,     0.027665809f,     0.002851422f,
    0.020580752f,     0.011490729f,     -0.020479007f,     0.023953857f,     0.012397954f,     0.034702785f,     0.028018020f,     -0.008646446f,
    -0.024742123f,     -0.033684932f,     -0.030719034f,     0.017284637f,     0.007965488f,     -0.032733776f,     0.014327982f,     -0.023065360f,
    -0.016672855f,     -0.031889714f,     0.002306087f,     0.030749472f,     -0.011092535f,     0.014739770f,     -0.032802053f,     -0.009342534f,
    -0.012648332f,     0.032989707f,     0.022801468f,     0.007138269f,     0.002947676f,     -0.014596684f,     0.006011171f,     -0.000764417f,
    -0.032872260f,     -0.021937681f,     0.024645900f,     0.007478714f,     -0.000585680f,     -0.007177690f,     0.019135064f,     0.020089526f,
    0.013392922f,     0.007069358f,     -0.031602718f,     -0.033613242f,     0.017339600f,     0.003118362f,     0.012345792f,     0.022481782f,
    0.009103511f,     0.020559516f,     0.002855437f,     -0.001365036f,     0.031644151f,     -0.016821275f,     -0.012990633f,     0.002370213f,
    -0.013868742f,     0.003310761f,     0.032149155f,     0.013312328f,     -0.014931258f,     0.000773962f,     0.006008097f,     -0.022041965f,
    -0.016098164f,     0.010196937f,     -0.001345439f,     0.031641226f,     -0.014233556f,     -0.031497724f,     -0.001302532f,     0.032499999f,
    -0.018761376f,     -0.003901652f,     -0.019955879f,     0.025875399f,     0.032924887f,     -0.017792791f,     0.011868520f,     -0.013955773f,
    -0.016454881f,     -0.011099420f,     0.009729037f,     -0.028661052f,     -0.005994682f,     -0.021922044f,     0.002172887f,     0.026884025f,
    -0.020814398f,     0.003037027f,     -0.016883953f,     -0.028844597f,     -0.014576146f,     0.028597880f,     0.017291168f,     0.034786597f,
    -0.027142551f,     0.015545838f,     0.020018792f,     0.010929909f,     0.008871747f,     -0.017622715f,     -0.033325277f,     -0.002780629f,
    -0.030581454f,     0.032505184f,     -0.022106227f,     -0.029245084f,     0.012317126f,     -0.013071934f,     -0.025890607f,     -0.029087059f,
    -0.004188316f,     -0.027166832f,     0.027176343f,     -0.011524869f,     0.020261247f,     0.033385538f,     0.029027574f,     -0.010066012f,
    -0.027507085f,     -0.004669139f,     0.015175173f,     -0.025949033f,     -0.023969762f,     -0.019460184f,     -0.035601445f,     -0.028648850f,
    0.034695219f,     -0.017053647f,     -0.010480306f,     -0.032525249f,     -0.013260803f,     0.034708574f,     -0.009675018f,     0.024229830f,
    0.002579302f,     -0.013299163f,     0.027455136f,     0.005401663f,     -0.002429290f,     -0.012398512f,     -0.006099910f,     -0.027896281f,
    -0.014505656f,     0.005222248f,     -0.016877061f,     -0.009550977f,     0.032467023f,     0.029603129f,     -0.005990983f,     -0.009346183f,
    0.008181470f,     -0.034528602f,     -0.008362813f,     -0.020917485f,     -0.025802745f,     -0.002097500f,     0.015781306f,     -0.030265154f,
    0.013106117f,     0.024193680f,     -0.008791647f,     0.022614148f,     0.013254336f,     -0.006614089f,     -0.028692612f,     -0.012827580f,
    -0.002141493f,     -0.032997623f,     -0.014686138f,     -0.017986052f,     -0.034887478f,     -0.033311933f,     -0.017793324f,     -0.022783915f,
    0.023691822f,     0.017302208f,     0.021321613f,     0.000589928f,     -0.013002626f,     -0.025810834f,     0.007460688f,     0.006798562f,
    0.033001836f,     0.013968481f,     0.022655798f,     -0.022853542f,     -0.030792931f,     -0.001009984f,     0.028691374f,     -0.025646040f,
    -0.014968928f,     0.000912049f,     -0.033779141f,     -0.032001305f,     -0.034206368f,     -0.033214856f,     -0.017111102f,     -0.019291211f,
    -0.029611563f,     -0.020853516f,     -0.006033289f,     0.013500576f,     -0.016487425f,     -0.023822509f,     0.029603317f,     0.006586539f,
    -0.028191794f,     0.030907040f,     0.008734342f,     -0.032380402f,     -0.008681668f,     0.029009053f,     0.018797927f,     -0.013071627f,
    0.005077051f,     0.027841177f,     -0.005366385f,     -0.015942285f,     0.006344953f,     -0.017959923f,     0.021389149f,     -0.032431167f,
    -0.026932718f,     -0.017962767f,     0.009980449f,     0.017176697f,     -0.013818954f,     -0.018909775f,     0.028087899f,     -0.019316513f,
    0.009622319f,     -0.001824213f,     0.026090095f,     -0.019898709f,     0.016723599f,     0.029313229f,     -0.013634900f,     -0.034388699f,
    -0.016464656f,     -0.021814024f,     -0.023825599f,     0.006618768f,     0.018733196f,     0.007405711f,     -0.018685691f,     0.031152148f,
    0.004826929f,     0.003539056f,     -0.028389540f,     -0.021652175f,     0.018740315f,     -0.016007900f,     0.023191461f,     -0.007197947f,
    0.019777559f,     0.030603461f,     0.012181184f,     -0.002778100f,     -0.024470488f,     -0.022276139f,     -0.004120614f,     -0.034283847f,
    0.003048722f,     -0.014309616f,     -0.016694261f,     -0.030603560f,     0.032476801f,     -0.019012749f,     0.015592444f,     0.013193008f,
    -0.010084813f,     -0.017575154f,     0.012435245f,     -0.014853274f,     -0.030576106f,     0.009154525f,     -0.021628411f,     0.026866565f,
    -0.013397950f,     -0.027853468f,     -0.035351694f,     -0.011685555f,     0.029144177f,     -0.009555775f,     -0.028687857f,     -0.019082986f,
    0.008290049f,     0.022821253f,     0.023447728f,     -0.034064919f,     0.015194651f,     -0.009322286f,     0.035580810f,     0.031593308f,
    0.004664583f,     0.034953639f,     0.001914603f,     -0.032175392f,     0.012046014f,     -0.006669113f,     0.009479178f,     -0.022000944f,
    -0.021474017f,     0.006866532f,     -0.021419054f,     -0.009144328f,     0.021140287f,     0.034423806f,     0.035319075f,     0.001500394f,
    -0.014078409f,     0.032067448f,     -0.001338124f,     -0.022108501f,     -0.000906978f,     -0.010671612f,     0.030912256f,     0.029287135f,
    -0.017570365f,     0.026116189f,     0.004733316f,     -0.006740639f,     -0.025079107f,     -0.025857646f,     -0.018003354f,     0.008844402f,
    0.015688084f,     -0.027899066f,     -0.031238800f,     -0.027388016f,     -0.024907501f,     -0.004977052f,     0.012614463f,     -0.001062602f,
    0.003370826f,     0.009687901f,     -0.011242173f,     -0.018446153f,     -0.022432618f,     -0.001875281f,     -0.000796914f,     -0.023095371f,
    -0.011193702f,     0.008000910f,     0.010528761f,     0.010638212f,     -0.005204048f,     -0.011495621f,     0.007985022f,     0.019120311f,
    -0.025919490f,     -0.024590524f,     -0.003415857f,     0.031179940f,     0.027671721f,     -0.012088078f,     -0.016633656f,     -0.025211127f,
    -0.018027723f,     -0.034327470f,     0.026376495f,     -0.013361246f,     -0.028835826f,     0.028450087f,     0.008566205f,     -0.008650852f,
    -0.035274256f,     0.013731153f,     -0.017023887f,     -0.007540499f,     0.033170123f,     -0.011358866f,     0.025270995f,     0.009995244f,
    0.012362042f,     0.025832387f,     -0.021053370f,     0.000921684f,     -0.002968635f,     0.003414533f,     -0.034810834f,     0.016969670f,
    -0.018638544f,     -0.027218679f,     -0.004798587f,     -0.016292598f,     0.008696029f,     0.032742247f,     -0.028623812f,     -0.030966952f,
    -0.031208452f,     0.015573383f,     -0.035130847f,     0.001170810f,     0.034339301f,     0.017738432f,     -0.003233850f,     -0.010699729f,
    0.032253899f,     0.019602686f,     -0.024296936f,     -0.033168755f,     -0.023405906f,     0.022420561f,     -0.034824714f,     0.030287543f,
    0.006157373f,     0.015511373f,     0.028099056f,     0.001817465f,     0.014071410f,     -0.002985669f,     0.032317325f,     0.030682821f,
    0.008696953f,     -0.031401165f,     0.014565447f,     -0.015454374f,     0.021888467f,     -0.016913397f,     0.013602589f,     0.022408729f,
    0.023085663f,     -0.008596327f,     0.021581268f,     -0.012610151f,     -0.010817009f,     -0.015064436f,     -0.011602636f,     0.023045694f,
    -0.030338153f,     -0.008098347f,     0.028127553f,     -0.018934570f,     -0.014696837f,     -0.009225497f,     -0.013632102f,     0.011765723f,
    -0.013122040f,     0.005633376f,     0.016940348f,     0.015142122f,     -0.005656928f,     -0.017381260f,     0.027849386f,     -0.029492274f,
    -0.030069595f,     0.023090521f,     0.034160163f,     0.019313451f,     -0.023297001f,     -0.007673528f,     0.013218851f,     0.001702006f,
    0.032393374f,     0.022204017f,     -0.002976631f,     -0.011880846f,     -0.009094208f,     0.001735385f,     0.034998201f,     -0.012184199f,
    0.027572408f,     0.019841773f,     -0.031922176f,     0.003290177f,     0.026649481f,     -0.008573631f,     0.025060238f,     0.014969895f,
    0.006998041f,     -0.010522579f,     0.021536816f,     -0.032155089f,     -0.012549201f,     0.021627896f,     -0.005697791f,     -0.021457924f,
    -0.003768683f,     0.020829257f,     0.002295643f,     0.007272512f,     -0.029011937f,     0.020051949f,     0.018034775f,     -0.024410840f,
    0.033170007f,     0.005980130f,     -0.015350517f,     0.006233948f,     -0.007135630f,     -0.016032407f,     0.008551478f,     0.012171985f,
    0.005943541f,     0.026331844f,     0.017857680f,     0.023402713f,     -0.015549528f,     -0.014401973f,     -0.003457649f,     -0.018904069f,
    -0.006239870f,     0.007332219f,     0.016454527f,     -0.013982181f,     -0.009840617f,     0.025549805f,     0.035021394f,     0.030107554f,
    0.021197904f,     -0.021770751f,     -0.030130060f,     0.014421055f,     -0.005860780f,     -0.033374097f,     0.030889338f,     -0.003563941f,
    0.019060511f,     0.012292692f,     -0.007654480f,     0.030122932f,     0.020441389f,     0.002982003f,     0.026754597f,     0.024308499f,
    -0.011596591f,     -0.009329340f,     -0.032143284f,     0.032455280f,     0.030612547f,     0.035153173f,     0.012029470f,     -0.035182394f,
    -0.002432717f,     0.011491495f,     -0.034446057f,     -0.001213116f,     -0.034887690f,     -0.005598720f,     0.002248662f,     0.026010331f,
    0.019076079f,     0.014000962f,     -0.031880252f,     -0.022511842f,     -0.019623570f,     -0.018756650f,     0.021472711f,     -0.012984106f,
    0.032828011f,     0.025632868f,     -0.027509606f,     -0.010984213f,     0.032023717f,     -0.018039335f,     0.011715136f,     0.017643405f,
    0.022069642f,     0.025409188f,     -0.004346644f,     -0.027016271f,     0.024572127f,     0.017041450f,     -0.029918574f,     -0.013429562f,
    0.025323762f,     -0.002165152f,     -0.006548333f,     -0.033370852f,     -0.027504360f,     -0.006741831f,     0.028644826f,     0.005646796f,
    0.003854513f,     0.007178486f,     0.013673459f,     -0.012150471f,     -0.012097057f,     -0.003034498f,     -0.032753132f,     0.004653096f,
    0.010080862f,     -0.004394153f,     -0.011573030f,     0.028895278f,     0.012476207f,     -0.020650337f,     0.034615058f,     0.015195238f,
    0.005566099f,     0.017449269f,     0.002130079f,     0.014997185f,     0.032643270f,     -0.005789680f,     0.034761667f,     0.001141357f,
    -0.014882076f,     -0.022812070f,     0.018551333f,     0.018978257f,     -0.015287234f,     -0.034808286f,     -0.031570848f,     0.019970506f,
    0.003794496f,     -0.015202446f,     0.031792134f,     -0.023230486f,     0.029357264f,     0.028084327f,     0.001024944f,     -0.014763888f,
    -0.031160381f,     -0.015076761f,     0.025119876f,     -0.014727470f,     0.023226501f,     -0.009629509f,     0.009793525f,     -0.003348057f,
    0.028855836f,     0.031501886f,     0.025389664f,     -0.020131994f,     -0.034617215f,     -0.000712514f,     -0.017825378f,     0.031731095f,
    0.033323497f,     -0.018769313f,     0.017679449f,     -0.026817417f,     0.003460237f,     -0.026109794f,     -0.033296779f,     0.009144481f,
    0.008344744f,     0.001225753f,     -0.018876910f,     0.008132437f,     0.019088652f,     0.004967396f,     0.031154647f,     -0.016710108f,
    0.010623200f,     -0.012857263f,     0.029220786f,     0.028462820f,     0.031235859f,     -0.026849100f,     -0.011898769f,     -0.018529186f,
    0.003904275f,     -0.020295497f,     -0.012924770f,     -0.027612751f,     0.000400279f,     0.002499563f,     -0.001805872f,     0.007456959f,
    -0.019534541f,     -0.032733914f,     -0.032495301f,     0.024142390f,     -0.022431767f,     -0.001626619f,     0.009950604f,     -0.002703369f,
    0.013948314f,     -0.021546323f,     0.018002374f,     0.007272133f,     -0.010552092f,     -0.000176587f,     0.024924194f,     -0.020931875f,
    -0.027310394f,     -0.009341773f,     0.020766824f,     -0.015601789f,     -0.034433778f,     -0.015121584f,     0.005961193f,     -0.026369134f,
    -0.011263329f,     -0.017636037f,     0.010279554f,     -0.001572690f,     -0.011746914f,     -0.021171303f,     -0.023392729f,     -0.006547149f,
    0.033088047f,     -0.013968204f,     -0.020244131f,     0.035344210f,     0.013678045f,     -0.006808890f,     -0.000267161f,     -0.011955759f,
    0.028188370f,     -0.010456512f,     0.029891165f,     -0.017886359f,     0.021687057f,     -0.011850779f,     0.013822045f,     -0.014745232f,
    -0.033643525f,     -0.031907976f,     -0.013021002f,     -0.017383913f,     -0.014239418f,     0.012855518f,     -0.026284261f,     0.033923823f,
    0.009595846f,     -0.010326390f,     0.005532355f,     -0.020487381f,     0.008507273f,     0.010140164f,     -0.015845483f,     -0.008974123f,
    0.013416989f,     -0.005757511f,     0.026031597f,     0.007360246f,     -0.019532647f,     0.010448882f,     -0.030317372f,     0.012525704f,
    0.009701073f,     0.014121618f,     0.031260353f,     -0.019483954f,     -0.023921998f,     0.016539510f,     -0.016769717f,     0.000573086f,
    0.013819257f,     0.029386654f,     -0.008867234f,     -0.009879190f,     -0.018777108f,     -0.006257611f,     0.021215428f,     -0.032403141f,
    -0.009684980f,     0.001811653f,     0.021013746f,     -0.030758800f,     -0.026966114f,     -0.027718874f,     -0.030617401f,     -0.006828717f,
    0.014340324f,     0.029209726f,     -0.029569045f,     -0.017383028f,     0.034553807f,     -0.017766286f,     -0.020026280f,     -0.029000910f,
    0.019633491f,     0.005043371f,     0.022690084f,     0.016607720f,     -0.020753188f,     -0.015350917f,     -0.030133998f,     0.017378625f,
    -0.018915368f,     0.015556728f,     0.013877895f,     -0.008108824f,     0.018098500f,     -0.028864052f,     -0.025362236f,     -0.008722072f,
    0.015030627f,     0.021435680f,     0.002123271f,     -0.033376303f,     0.014644785f,     -0.001665184f,     -0.031260282f,     -0.019204613f,
    -0.008169604f,     -0.019104162f,     0.027067786f,     0.025206102f,     -0.031562772f,     -0.007397166f,     0.020019090f,     0.035196669f,
    0.024895482f,     -0.026577843f,     -0.023172792f,     0.002900941f,     0.015819341f,     -0.005588042f,     0.034424242f,     0.007607937f,
    -0.025800837f,     -0.012434513f,     -0.034346171f,     -0.022584775f,     0.025441911f,     -0.024211349f,     0.019552538f,     0.030254021f,
    0.031886507f,     -0.020387953f,     0.013373022f,     -0.023905300f,     -0.001691920f,     -0.006701248f,     -0.007296277f,     -0.014951821f,
    -0.009732855f,     -0.035141893f,     -0.006890532f,     -0.023413634f,     0.019914262f,     0.005340274f,     0.022767795f,     -0.031504828f,
    -0.027704287f,     0.008987653f,     0.025053706f,     0.007305282f,     0.015418909f,     -0.015392155f,     -0.011696446f,     0.022777649f,
    0.033727936f,     0.028058548f,     -0.032025080f,     0.024361927f,     0.004885691f,     -0.021372927f,     0.012519768f,     -0.006789719f,
    0.020644985f,     0.017880499f,     -0.021574672f,     0.029347707f,     -0.016881740f,     -0.014582733f,     -0.015753193f,     0.006634959f,
    -0.026123725f,     0.019575251f,     0.002620118f,     0.001690950f,     -0.018543368f,     0.035057165f,     -0.027087869f,     -0.027040116f,
    -0.019062234f,     -0.007126783f,     0.001254967f,     -0.008323550f,     -0.010326403f,     0.013348852f,     0.012208275f,     -0.011156849f,
    0.011381767f,     0.014312187f,     -0.033808794f,     -0.030056018f,     0.024096157f,     0.021906795f,     -0.035490774f,     -0.029992407f,
    -0.015613305f,     -0.012799336f,     -0.024818251f,     0.019918144f,     -0.032128703f,     0.033031732f,     0.026382091f,     0.024186140f,
    -0.034249179f,     0.030793043f,     0.017418917f,     0.022391912f,     -0.012663344f,     0.028099036f,     -0.015967071f,     0.026161941f,
    0.019608570f,     -0.026236225f,     -0.021439310f,     -0.031640992f,     -0.024371868f,     0.035622459f,     -0.009653164f,     -0.012318701f,
    0.015260676f,     0.014754113f,     0.034389213f,     -0.000517309f,     -0.033509232f,     -0.024475968f,     -0.012298589f,     0.035156500f,
    0.020616597f,     0.021575334f,     0.031824201f,     -0.014137397f,     0.018681008f,     0.010002154f,     -0.000172794f,     0.030334534f,
    0.025005432f,     -0.027856266f,     0.009614370f,     0.033481825f,     -0.033347815f,     -0.023492862f,     0.000207697f,     -0.020697705f,
    0.007155385f,     -0.033020452f,     -0.035453457f,     0.022939159f,     0.005582175f,     -0.026946371f,     -0.012060140f,     -0.021464719f,
    -0.010659466f,     0.020927494f,     0.015701115f,     -0.034008246f,     -0.006732920f,     -0.002363158f,     -0.007517836f,     -0.009196367f,
    0.006390223f,     -0.001695616f,     -0.026023824f,     -0.023904312f,     -0.012925187f,     0.017204707f,     0.027771303f,     0.013753478f,
    0.034643989f,     -0.000356678f,     -0.022894328f,     0.002616955f,     -0.033099767f,     -0.002974583f,     -0.000045589f,     -0.017451257f,
    -0.020615434f,     0.001540167f,     -0.014024573f,     0.033437040f,     0.034452952f,     -0.002516410f,     0.012717111f,     -0.030788695f,
    0.013355435f,     0.005658755f,     -0.017503347f,     -0.022313574f,     0.003923663f,     0.020191504f,     -0.012779871f,     0.014918375f,
    0.018136967f,     -0.031288821f,     -0.006079989f,     -0.027472923f,     0.026352726f,     -0.023509141f,     -0.005981769f,     -0.024677567f,
    0.010241415f,     0.011354605f,     0.011633149f,     -0.002710606f,     -0.033799220f,     -0.005847114f,     -0.026304476f,     -0.008471144f,
    0.010553611f,     -0.026284721f,     0.029711954f,     0.030291215f,     0.035150278f,     -0.002531158f,     0.033039890f,     -0.021912852f,
    -0.000562157f,     -0.002805906f,     -0.009709883f,     0.004972382f,     -0.003155496f,     -0.032365672f,     0.009560416f,     0.016246192f,
    -0.021768039f,     -0.019651640f,     -0.004317148f,     -0.021090053f,     0.006357657f,     0.005691907f,     0.007576964f,     0.033016175f,
    -0.013969724f,     0.023024462f,     -0.030663092f,     -0.003099144f,     -0.000685960f,     -0.001141638f,     0.026412169f,     -0.031177692f,
    -0.032467719f,     -0.021831505f,     0.035684582f,     -0.026301665f,     0.029299989f,     -0.017882144f,     -0.008482827f,     -0.007433632f,
    -0.008341415f,     0.026888832f,     0.006374342f,     -0.005413545f,     0.027471509f,     0.006593892f,     -0.018610394f,     -0.011373414f,
    -0.035353877f,     -0.025848288f,     0.034924291f,     -0.014696369f,     0.010862155f,     0.009570544f,     0.034300096f,     0.034486040f,
    0.007843802f,     -0.006411250f,     -0.018023185f,     -0.034625828f,     0.032895457f,     0.014878508f,     -0.024937784f,     -0.001697489f,
    -0.013288541f,     0.008605902f,     0.026234897f,     -0.016858954f,     -0.026782313f,     -0.025460759f,     0.015470825f,     0.033631492f,
    -0.006814369f,     0.011418424f,     0.011033076f,     -0.007010669f,     -0.014135791f,     0.013736163f,     0.030533481f,     -0.034607489f,
    -0.013798591f,     0.017712947f,     -0.007718342f,     0.021449618f,     -0.005416585f,     0.018539961f,     -0.027635725f,     -0.010613387f,
    -0.001337545f,     0.016266411f,     -0.006273440f,     0.006346366f,     0.016375525f,     -0.014367100f,     0.025407614f,     -0.005106432f,
    0.018009378f,     0.002202209f,     -0.025242997f,     -0.025882794f,     0.023674468f,     -0.015234241f,     0.014378769f,     -0.034809031f,
    0.026504744f,     0.023905832f,     0.005413954f,     0.003242723f,     0.029267790f,     0.032030366f,     -0.005915595f,     -0.005080947f,
    -0.027393674f,     -0.023948152f,     -0.027189443f,     0.011687730f,     -0.004947284f,     -0.010538485f,     -0.015471617f,     0.001231347f,
    -0.030871788f,     0.027440673f,     -0.007144055f,     -0.028347651f,     0.022362459f,     -0.007612825f,     -0.022089984f,     -0.007157565f,
    -0.000941042f,     -0.016169166f,     0.020598063f,     0.032289971f,     0.006540337f,     -0.027911358f,     -0.005705110f,     0.026719321f,
    -0.024419717f,     0.020017425f,     0.015808787f,     -0.010143161f,     -0.010129754f,     0.013812019f,     0.017642567f,     -0.028344061f,
    0.029304961f,     -0.002975651f,     -0.009053533f,     -0.013763292f,     -0.012132487f,     -0.007013432f,     0.030532204f,     0.032328494f,
    -0.028602784f,     0.020899735f,     0.025998125f,     0.003210498f,     0.007996670f,     -0.035378627f,     -0.035484396f,     -0.000168353f,
    -0.024135178f,     0.005536663f,     0.019743836f,     0.028672764f,     -0.028987950f,     0.027119258f,     0.007106420f,     0.018333508f,
    -0.011010924f,     -0.023814913f,     0.005530341f,     -0.031472694f,     0.001941758f,     -0.011644543f,     -0.016275054f,     -0.017547064f,
    0.010286834f,     0.007705566f,     0.018422183f,     0.024586836f,     -0.030925032f,     -0.028996125f,     -0.008188108f,     -0.012558917f,
    0.012399943f,     0.017400887f,     -0.019495884f,     -0.008486459f,     -0.013798932f,     -0.012687108f,     0.008898348f,     -0.023989048f,
    0.017653521f,     0.017991804f,     0.032230902f,     -0.016084075f,     0.002293795f,     -0.025315972f,     0.011866374f,     0.017777313f,
    0.026079094f,     -0.008888607f,     -0.010094298f,     -0.001405725f,     0.006080074f,     0.035307694f,     -0.020874318f,     -0.030042892f,
    0.014793341f,     -0.019585526f,     0.014153222f,     -0.022186901f,     0.022453440f,     0.021706318f,     -0.009618355f,     0.016930977f,
    -0.010427723f,     0.021719435f,     0.029968463f,     0.022710226f,     -0.013909068f,     -0.035027571f,     -0.017084783f,     -0.006192114f,
    0.002481823f,     -0.013790902f,     -0.021017071f,     0.006406729f,     -0.034490030f,     0.021786775f,     0.031885117f,     0.018972870f,
    -0.001663936f,     0.027831998f,     0.010278217f,     0.009988044f,     0.030169616f,     -0.004232313f,     0.028194629f,     0.016655505f,
    0.011295042f,     0.010302502f,     0.029546147f,     -0.029096000f,     -0.022490749f,     0.023841314f,     0.002866209f,     0.005940391f,
    -0.008494531f,     -0.032003749f,     0.016635219f,     -0.014300074f,     -0.010609146f,     0.012643236f,     0.024076739f,     -0.004253958f,
    -0.005111107f,     -0.012737079f,     0.029581867f,     0.025598293f,     0.007666988f,     0.029534712f,     -0.013481775f,     0.019183207f,
    0.017533593f,     -0.006369391f,     0.022144957f,     0.025466213f,     -0.007051068f,     -0.000730727f,     -0.032626294f,     -0.025140477f,
    -0.000621285f,     -0.034872264f,     -0.007311319f,     0.007794649f,     0.020815630f,     0.016753159f,     -0.019172933f,     0.019908076f,
    -0.021532971f,     0.007593679f,     0.011621786f,     0.025383452f,     -0.033367407f,     -0.027491506f,     -0.011840825f,     -0.035324063f,
    -0.034346789f,     0.006306414f,     -0.004667478f,     0.027310880f,     -0.019638300f,     -0.006562927f,     0.027470365f,     0.030884914f,
    -0.015137456f,     -0.015507562f,     -0.004673102f,     -0.021266904f,     -0.002472699f,     0.011014228f,     -0.001450551f,     0.017404098f,
    0.027950296f,     -0.025553875f,     0.016823053f,     -0.019692890f,     -0.012045805f,     0.018150568f,     0.002568496f,     0.012443343f,
    0.015750566f,     0.027541831f,     0.025434639f,     -0.008510343f,     0.019631250f,     -0.017647862f,     0.003410156f,     -0.026506366f,
    -0.012882749f,     0.008736053f,     0.014267611f,     -0.016575094f,     -0.024029844f,     0.033229958f,     -0.002305929f,     0.013226927f,
    0.023961950f,     -0.015434338f,     0.008898607f,     -0.024407098f,     0.025426926f,     -0.026863636f,     -0.018428892f,     0.030035825f,
    -0.025375487f,     -0.032361552f,     -0.033608574f,     0.010159944f,     0.022373894f,     0.021391066f,     -0.014843894f,     0.035433419f,
    -0.018022440f,     -0.028297059f,     -0.024390316f,     -0.006907472f,     -0.010616312f,     -0.025898965f,     0.026584435f,     0.027496556f,
    0.003944559f,     0.012343948f,     -0.030527474f,     -0.013508218f,     0.001737803f,     0.025807220f,     0.014087001f,     -0.007429715f,
    -0.025387378f,     -0.028290337f,     -0.035595059f,     -0.028921792f,     0.034979723f,     0.029841110f,     -0.014481375f,     0.017803555f,
    0.002248704f,     -0.010802764f,     0.013819278f,     0.030258423f,     0.030607935f,     0.033664454f,     0.011329983f,     0.030267755f,
    -0.011405660f,     -0.031306066f,     -0.030772576f,     -0.032512695f,     -0.020202229f,     0.027158044f,     -0.023195166f,     -0.034210749f,
    -0.019408185f,     0.024321552f,     -0.005534211f,     -0.027337357f,     0.024088209f,     -0.024904283f,     -0.028956138f,     0.013589148f,
    -0.019150373f,     0.020878619f,     -0.032278918f,     0.016041799f,     -0.019890470f,     0.010036550f,     -0.002694896f,     0.021216743f,
    -0.024376435f,     -0.013010622f,     0.016409419f,     -0.016889479f,     -0.021843078f,     0.011696032f,     -0.007581268f,     -0.024369186f,
    0.019108206f,     -0.029492788f,     0.001332232f,     0.031038601f,     0.008860997f,     -0.010484198f,     -0.014703692f,     -0.007084881f,
    0.006010473f,     -0.002387281f,     -0.022600405f,     -0.032136869f,     0.020045958f,     0.020388514f,     0.024003269f,     -0.002661756f,
    -0.031415988f,     0.020619316f,     -0.033482298f,     -0.031563509f,     0.010049369f,     0.024642384f,     0.010483811f,     0.006066135f,
    0.011012572f,     0.005114049f,     0.023038823f,     -0.024921857f,     0.029490199f,     0.012892268f,     -0.011984426f,     0.021492602f,
    0.034333155f,     0.010965577f,     0.017606003f,     0.003089100f,     0.000000915f,     0.031036429f,     0.024317039f,     -0.021010213f,
    -0.025370803f,     0.011864386f,     -0.010157202f,     -0.009620113f,     -0.022101361f,     0.009182177f,     0.030100126f,     -0.017291082f,
    -0.028526107f,     -0.019596212f,     0.011551636f,     0.027979389f,     -0.000625329f,     0.010354638f,     -0.003790106f,     0.023903137f,
    -0.012299368f,     -0.006604088f,     -0.020480080f,     0.013442862f,     0.000870445f,     0.011233386f,     -0.013453799f,     -0.007066054f,
    0.031839099f,     0.033145215f,     0.018028077f,     -0.032187898f,     0.019422818f,     -0.017746713f,     0.030126777f,     0.035471104f,
    0.027558656f,     -0.020551303f,     -0.003702619f,     -0.011144664f,     0.020314379f,     0.028101914f,     0.008318778f,     0.013080985f,
    0.022487570f,     -0.034649327f,     -0.021507235f,     0.013219255f,     -0.033691149f,     -0.029852565f,     0.005115386f,     0.033579301f,
    0.010943439f,     0.016788645f,     -0.009534943f,     -0.032255255f,     -0.027283253f,     -0.020168599f,     0.009278873f,     -0.018686717f,
    0.014059025f,     -0.003239368f,     0.001485195f,     0.002008511f,     -0.023388442f,     0.027037606f,     0.006224888f,     0.026284568f,
    0.027500857f,     -0.004554263f,     -0.012795526f,     0.021387855f,     0.013288396f,     -0.027088257f,     0.001096176f,     0.035707079f,
    0.023092462f,     0.008369174f,     0.016060239f,     0.024539229f,     -0.030690322f,     0.014435326f,     0.032230981f,     0.007616520f,
    -0.007440767f,     0.032742694f,     0.008640349f,     0.031863492f,     0.014578991f,     0.008960634f,     0.017922854f,     0.005990173f,
    0.001268668f,     -0.014197312f,     0.034157373f,     0.014627470f,     0.035479393f,     -0.007022304f,     0.027455226f,     0.017583273f,
    0.021035906f,     0.026456017f,     0.015846292f,     0.027014814f,     -0.023841692f,     0.027798049f,     0.009320340f,     0.026790181f,
    0.019143263f,     0.002129708f,     0.002031003f,     -0.012987295f,     -0.009237490f,     -0.002754050f,     0.006344463f,     0.015176238f,
    0.029621139f,     0.012813969f,     -0.025379097f,     -0.016866293f,     0.020222832f,     0.010760423f,     -0.032651432f,     -0.004861163f,
    0.026842173f,     0.002113581f,     0.012688731f,     -0.007547175f,     -0.014216487f,     -0.026828934f,     0.021604965f,     -0.018253732f,
    -0.004242808f,     -0.034597982f,     0.033095397f,     -0.007795466f,     -0.009211941f,     0.005067817f,     -0.028207550f,     -0.015398158f,
    0.017677993f,     0.025157832f,     0.012554834f,     0.022851277f,     -0.008012397f,     0.025465246f,     0.022914641f,     0.022507882f,
    -0.021167926f,     -0.014070269f,     -0.028410036f,     0.017266423f,     0.031482562f,     -0.028426887f,     -0.024908207f,     -0.023273993f,
    0.031576589f,     -0.029447600f,     0.015431882f,     0.029144701f,     0.013494330f,     0.029866250f,     0.020194123f,     -0.031508166f,
    -0.035590429f,     -0.023493104f,     0.008293808f,     0.015884060f,     -0.008558478f,     0.017458547f,     -0.030785864f,     -0.003163989f,
    0.024225228f,     0.007434390f,     -0.029776433f,     -0.015980912f,     0.005495796f,     0.013604058f,     -0.009439494f,     -0.000016894f,
    -0.021299930f,     -0.033442345f,     -0.034358673f,     -0.028398992f,     -0.033997156f,     -0.010569854f,     -0.034275632f,     -0.031524267f,
    0.016033655f,     0.006182437f,     -0.017310284f,     0.017467346f,     0.032512844f,     -0.024296923f,     -0.001407951f,     -0.005594641f,
    -0.013945606f,     -0.030872377f,     -0.015751725f,     0.000224092f,     -0.029027935f,     -0.019827001f,     0.026601039f,     0.013676818f,
    0.021723395f,     -0.005267058f,     0.031312026f,     -0.004390994f,     -0.017989486f,     0.006179882f,     -0.008304316f,     0.030700805f,
    -0.021301216f,     0.012935784f,     0.001993673f,     -0.024173865f,     0.032248657f,     -0.022035519f,     0.016671292f,     -0.019903971f,
    0.010498558f,     -0.023480332f,     0.010894218f,     -0.004577811f,     -0.002048790f,     -0.021001847f,     0.034481730f,     0.021842422f,
    -0.002893333f,     0.029715851f,     -0.007966962f,     0.017946322f,     -0.032588627f,     0.023517929f,     -0.032070667f,     0.019813739f,
    0.021017548f,     0.021835750f,     -0.031335630f,     0.027341643f,     0.008016012f,     0.014963049f,     -0.028988022f,     0.008646650f,
    0.032122958f,     -0.017694926f,     0.022178140f,     0.003934094f,     0.027075257f,     -0.022819968f,     0.026784863f,     0.003677006f,
    0.008611952f,     -0.024038354f,     -0.013368611f,     0.035705656f,     -0.031382840f,     0.019571548f,     -0.011353540f,     0.004180900f,
    -0.032916315f,     -0.004032131f,     -0.011051507f,     -0.031526472f,     -0.024252292f,     -0.002568300f,     -0.007999506f,     -0.031094458f,
    -0.017533345f,     0.023370935f,     -0.011120413f,     -0.018989189f,     0.035083618f,     0.023213817f,     -0.018599192f,     -0.021774156f,
    0.011901827f,     0.018174155f,     0.009173568f,     0.012693031f,     0.035134342f,     0.024819341f,     -0.034314342f,     0.021765489f,
    0.003634202f,     -0.026052335f,     -0.028851097f,     0.025187634f,     -0.034553938f,     -0.003334054f,     0.002430988f,     -0.019531349f,
    0.028117731f,     0.032709736f,     0.002649031f,     -0.006288341f,     0.032467283f,     0.029450979f,     -0.021873744f,     0.004860376f,
    0.026761180f,     0.017914960f,     -0.003518577f,     -0.008625976f,     0.003757294f,     0.011238755f,     -0.013048858f,     -0.027120907f,
    0.034366097f,     0.023874464f,     0.002177319f,     0.027692685f,     0.019464506f,     0.028095940f,     0.009284305f,     0.021045048f,
    0.023572808f,     -0.010111094f,     -0.023233367f,     -0.004380724f,     0.035131298f,     -0.000542458f,     -0.010780412f,     -0.032040771f,
    0.010166029f,     -0.019249385f,     -0.003178073f,     -0.011888918f,     -0.009489397f,     0.003048688f,     -0.033338130f,     -0.004216939f,
    0.023715783f,     0.024631228f,     0.006940485f,     0.003998633f,     0.023185395f,     0.030648246f,     0.007881633f,     0.009088461f,
    -0.029474154f,     0.013775732f,     0.012443782f,     0.029869141f,     -0.017361183f,     -0.004923327f,     0.007242999f,     0.009524120f,
    0.010102767f,     0.023275193f,     -0.021562340f,     -0.003085009f,     -0.033438101f,     0.035412930f,     -0.002676266f,     0.030166330f,
    0.027095582f,     -0.009711713f,     0.020885196f,     0.028851697f,     0.003428251f,     0.022169830f,     -0.015156534f,     0.034269288f,
    0.011064854f,     -0.032399252f,     -0.005145209f,     0.011623166f,     -0.022496395f,     0.034210812f,     -0.007927989f,     -0.028224776f,
    -0.035424151f,     0.033511098f,     -0.022443006f,     -0.002053985f,     0.027093276f,     0.010946671f,     -0.019165449f,     0.033879556f,
    -0.030112203f,     0.007253971f,     -0.005385088f,     0.010960737f,     -0.013248546f,     -0.028342342f,     0.021462467f,     0.007162116f,
    -0.031953085f,     0.022987256f,     0.002733571f,     0.016927311f,     -0.029656876f,     -0.022568543f,     -0.000288261f,     0.010151237f,
    -0.006433564f,     0.014864199f,     -0.035090402f,     -0.004969299f,     0.031384394f,     -0.028224248f,     -0.031458817f,     -0.032228105f,
    -0.027941564f,     0.033921301f,     0.003765213f,     -0.004591687f,     0.032639891f,     -0.008364444f,     0.007716141f,     -0.030588629f,
    -0.021096792f,     0.024854762f,     -0.014958174f,     -0.012445004f,     0.024359252f,     -0.012899761f,     0.027076796f,     0.024391133f,
    -0.018337259f,     -0.035570666f,     -0.032028891f,     0.013894086f,     -0.006143208f,     -0.031651691f,     -0.028659200f,     -0.016029738f,
    0.031221846f,     0.019853763f,     -0.022464128f,     -0.028254541f,     -0.009031135f,     -0.024668315f,     -0.012203758f,     0.033186249f,
    -0.024024611f,     0.007562140f,     -0.008872271f,     0.005903636f,     -0.013656068f,     0.007572085f,     0.027538463f,     -0.022479540f,
    -0.032433085f,     -0.034455784f,     0.032810982f,     0.021985838f,     -0.027778750f,     0.014529208f,     0.005323840f,     -0.031182772f,
    0.008049080f,     -0.034806173f,     -0.012776328f,     0.017822130f,     0.013493143f,     0.012403986f,     -0.027377836f,     -0.011380375f,
    -0.002373389f,     0.021650406f,     -0.019765910f,     -0.008474048f,     0.035294708f,     -0.027111582f,     0.031502694f,     0.026957130f,
    0.014465720f,     -0.026022742f,     -0.017683703f,     -0.008296107f,     -0.005837871f,     -0.005978819f,     0.035031050f,     0.015373546f,
    -0.010733536f,     -0.029085360f,     0.014766123f,     -0.034360658f,     0.033376127f,     -0.006877010f,     0.023478325f,     0.004711419f,
    -0.000544276f,     -0.023916680f,     -0.017300704f,     -0.023828818f,     -0.000723737f,     0.018919235f,     -0.028804559f,     0.029133994f,
    -0.033289641f,     -0.014542448f,     0.035381675f,     0.013939820f,     -0.012365529f,     -0.027944405f,     -0.015403220f,     -0.009655851f,
    0.012788424f,     0.031908620f,     0.030799041f,     0.001215743f,     0.027947580f,     -0.018579088f,     0.015443765f,     -0.032530326f,
    0.001825371f,     0.021882679f,     -0.029692199f,     -0.019133739f,     0.003468399f,     0.000604136f,     0.025034718f,     0.033353467f,
    -0.020770831f,     0.000607661f,     0.012546259f,     -0.026935834f,     -0.002806583f,     0.009884754f,     -0.001290513f,     -0.010567461f,
    -0.013418364f,     0.008566853f,     0.009557605f,     -0.027809354f,     0.004565605f,     0.018799907f,     -0.025747288f,     0.017802618f,
    0.029675873f,     -0.016946279f,     -0.027630454f,     -0.033823155f,     0.028749378f,     -0.015026276f,     -0.007081599f,     0.033682898f,
    -0.015141781f,     0.028132623f,     0.001503055f,     0.016370859f,     0.011101029f,     -0.012074182f,     0.017359206f,     -0.034714215f,
    0.026113702f,     -0.032856446f,     0.032013912f,     -0.021104580f,     -0.000475726f,     0.011220430f,     -0.009511735f,     0.006638612f,
    -0.000912321f,     -0.029190818f,     0.022724999f,     -0.029511781f,     0.006196146f,     0.023622002f,     0.016366756f,     0.012087707f,
    -0.018443763f,     -0.016869772f,     0.005233867f,     -0.029318126f,     0.023592379f,     0.035475440f,     -0.020320740f,     0.004924272f,
    -0.032845549f,     0.030329736f,     0.030797619f,     -0.034277551f,     0.005604127f,     -0.005532584f,     -0.009733077f,     -0.033751070f,
    0.014728219f,     0.006612646f,     0.029025475f,     -0.006068358f,     0.024013678f,     0.023524446f,     0.026246238f,     0.031240810f,
    0.016977260f,     0.028608264f,     -0.014932794f,     -0.010954661f,     0.009026608f,     0.002266501f,     -0.010951656f,     0.033022951f,
    -0.024346851f,     0.029884953f,     -0.031382591f,     0.024473660f,     0.027361866f,     0.006020163f,     -0.013602096f,     -0.013162485f,
    -0.023227211f,     -0.033168726f,     -0.001439835f,     -0.011833217f,     0.003927099f,     0.028507553f,     0.020837998f,     -0.032840386f,
    -0.001703037f,     0.030204149f,     0.008453216f,     -0.018351709f,     -0.025159458f,     -0.018375823f,     -0.034188624f,     -0.031564582f,
    0.009606553f,     0.002576888f,     0.021668222f,     0.007817975f,     0.002129810f,     -0.006690809f,     -0.008267152f,     0.010892686f,
    0.018949220f,     0.027671799f,     -0.001211669f,     -0.020869883f,     -0.018353514f,     -0.019530561f,     0.000292927f,     0.031867553f,
    0.015199687f,     0.015997266f,     0.005796233f,     -0.018990045f,     0.020043876f,     -0.006638659f,     0.029979017f,     -0.017558074f,
    0.034035612f,     -0.007239001f,     -0.023057321f,     0.015310812f,     -0.032072298f,     0.019115759f,     -0.031195467f,     -0.002925988f,
    0.006178392f,     0.024866076f,     -0.015528569f,     -0.012688803f,     -0.006838803f,     -0.031986974f,     -0.029378224f,     0.016528470f,
    -0.014435875f,     0.010791119f,     -0.015870074f,     0.028124483f,     -0.006161252f,     0.004054164f,     -0.002622724f,     0.016651610f,
    -0.002515784f,     -0.035216838f,     0.009750239f,     0.019347455f,     -0.030945435f,     0.014363417f,     0.029544555f,     -0.003625836f,
    -0.034830522f,     -0.006288256f,     -0.001223232f,     0.030880818f,     -0.034400016f,     0.017120754f,     -0.010886321f,     -0.032203037f,
    0.030388391f,     0.009836117f,     0.010420536f,     0.011621816f,     -0.010020670f,     -0.034432512f,     -0.027014976f,     -0.025540711f,
    0.021675851f,     0.002238708f,     0.011755267f,     0.003919418f,     -0.014268173f,     -0.035630520f,     0.026060067f,     0.030036131f,
    -0.005987525f,     -0.010562292f,     -0.011784197f,     0.001795688f,     0.007720305f,     0.026946904f,     0.009253949f,     0.017496873f,
    -0.032440152f,     -0.031430621f,     0.005577245f,     0.035365067f,     0.014522077f,     -0.015159301f,     0.035712808f,     -0.010848740f,
    0.023349367f,     -0.016131049f,     0.013723668f,     0.004911146f,     0.025494207f,     0.008956624f,     0.007631396f,     0.011804628f,
    -0.008475023f,     -0.030041641f,     -0.020054929f,     0.008699460f,     0.018562075f,     0.000315040f,     -0.032275338f,     0.026906321f,
    0.005782187f,     0.000723490f,     -0.023122814f,     -0.025365941f,     -0.016163593f,     0.027648408f,     0.026356621f,     -0.012392542f,
    0.007122722f,     -0.007549478f,     0.000718142f,     0.024146754f,     -0.019894367f,     -0.021245264f,     0.032529678f,     0.013100953f,
    -0.020286530f,     0.019782377f,     0.034643698f,     0.026654197f,     0.032270212f,     0.008644756f,     0.021997372f,     -0.027515944f,
    0.020430213f,     -0.003707290f,     0.022858556f,     0.032459915f,     0.008900443f,     0.027416192f,     0.003187725f,     -0.006215713f,
    -0.007544028f,     0.016701009f,     -0.013384850f,     0.028779827f,     0.033800632f,     0.016934093f,     -0.024672743f,     0.028268561f,
    0.032411557f,     0.002953887f,     0.019695759f,     0.014755066f,     -0.015620254f,     -0.035467222f,     -0.004617904f,     0.000019985f,
    -0.012951822f,     0.023021104f,     0.009904232f,     -0.003445400f,     0.033724301f,     0.012672710f,     -0.017734159f,     -0.027282730f,
    -0.027748859f,     0.034254514f,     -0.028980963f,     -0.019863939f,     -0.027587611f,     0.004119366f,     -0.011358883f,     0.032420855f,
    -0.019463327f,     -0.010910077f,     -0.009318152f,     -0.016286720f,     0.029569831f,     0.024549047f,     0.006764523f,     0.029213235f,
    0.020190036f,     0.007310944f,     0.017244905f,     0.000411902f,     -0.004723813f,     0.026263958f,     -0.009734741f,     0.017707152f,
    -0.003403983f,     -0.018957693f,     -0.002535501f,     -0.019418491f,     -0.019896824f,     -0.002165773f,     -0.011522175f,     0.019661253f,
    -0.018023206f,     0.009094958f,     0.021451274f,     -0.005637782f,     -0.004486131f,     0.008509291f,     0.002978270f,     0.004716473f,
    -0.016388886f,     -0.030880904f,     0.028103443f,     -0.003940195f,     -0.014029317f,     -0.009263895f,     -0.031377867f,     0.024024462f,
    -0.019653475f,     -0.011760836f,     -0.010972811f,     -0.019070506f,     0.020937366f,     -0.000550602f,     0.004937402f,     -0.024306001f,
    -0.002035324f,     0.003025919f,     0.029362621f,     -0.012021478f,     0.029458392f,     0.009083438f,     0.012295327f,     -0.017478131f,
    0.010888445f,     0.003057786f,     -0.026827838f,     0.006327481f,     -0.029123398f,     -0.033641752f,     0.034344342f,     0.003458275f,
    -0.014557146f,     -0.034704976f,     -0.029031243f,     0.012050842f,     0.019860094f,     0.002847719f,     0.018333619f,     -0.028877839f,
    0.025622556f,     -0.021824995f,     -0.013235046f,     0.006167369f,     0.000310404f,     0.008166412f,     0.001500611f,     0.015912253f,
    -0.027230337f,     -0.019032909f,     0.024574263f,     -0.027485393f,     0.030941376f,     0.009112005f,     0.032509554f,     0.027667064f,
    0.007550270f,     -0.007416108f,     0.019128051f,     0.012201493f,     -0.033611316f,     -0.006717457f,     0.001044801f,     0.012409956f,
    -0.033429541f,     -0.014322214f,     0.004801525f,     -0.023814108f,     -0.006081645f,     -0.015319761f,     0.001639575f,     0.013979627f,
    0.018556409f,     -0.018710924f,     0.004154972f,     0.020535184f,     0.006990659f,     -0.025276875f,     0.003357125f,     -0.015533227f,
    -0.009569058f,     -0.025487356f,     -0.023979660f,     -0.012840471f,     0.018105499f,     -0.015365976f,     -0.008193706f,     -0.009020542f,
    -0.009105670f,     -0.012456511f,     -0.015038086f,     -0.034757655f,     0.032558139f,     0.021074424f,     -0.006194213f,     -0.027959863f,
    -0.032936644f,     0.027217453f,     -0.013652351f,     -0.003294059f,     0.018845376f,     -0.034636814f,     -0.006870449f,     0.020287391f,
    0.002030207f,     0.024625694f,     0.003422112f,     0.004080343f,     -0.010031965f,     -0.026852133f,     -0.015435551f,     0.023153950f,
    0.027052160f,     0.013773732f,     -0.015491525f,     -0.017624758f,     -0.003040301f,     0.029759817f,     -0.034643874f,     0.018558657f,
    0.021288196f,     0.021286527f,     -0.000083200f,     0.012693521f,     -0.017965037f,     -0.026185816f,     -0.012104874f,     -0.021354409f,
    -0.013531537f,     0.015495880f,     -0.003799788f,     -0.012031522f,     -0.010101540f,     0.030050717f,     0.022767069f,     0.026162030f,
    0.022595355f,     -0.019429058f,     0.000727700f,     -0.003924161f,     0.019437037f,     0.029308354f,     -0.001737207f,     -0.009274351f,
    -0.034624666f,     -0.029946124f,     0.024475371f,     -0.028489605f,     -0.024325291f,     -0.001811913f,     0.024857735f,     0.033279963f,
    0.024278902f,     0.002202447f,     -0.006517981f,     -0.021061642f,     0.015940348f,     -0.016707456f,     -0.035640646f,     0.033794653f,
    0.013402169f,     0.017665485f,     -0.003172815f,     -0.008471111f,     -0.020899706f,     -0.034143735f,     -0.005466943f,     -0.032278337f,
    0.007067834f,     0.002776589f,     -0.034435317f,     -0.002992498f,     -0.017817030f,     0.025162749f,     0.006870922f,     0.029226841f,
    0.005145465f,     0.013610194f,     -0.012009655f,     -0.033820368f,     -0.010719913f,     -0.000444225f,     -0.031547166f,     0.004641039f,
    -0.025899049f,     0.023234794f,     0.023179647f,     0.004691073f,     -0.007952806f,     0.024135914f,     -0.032357510f,     -0.023371728f,
    0.034927078f,     -0.028884264f,     -0.013853692f,     -0.012955070f,     0.015067936f,     -0.022508098f,     0.014582179f,     -0.007467704f,
    0.000046905f,     -0.006277459f,     -0.033509083f,     -0.031815432f,     0.027529487f,     0.019314766f,     0.021341635f,     0.002870675f,
    0.007232917f,     -0.027109969f,     -0.014963312f,     -0.030775893f,     -0.033925761f,     -0.023024326f,     -0.018082637f,     0.032432392f,
    -0.019066721f,     -0.006321379f,     0.011704556f,     0.024162490f,     -0.007232117f,     0.010256380f,     0.015561385f,     0.019297725f,
    -0.000966643f,     -0.032090493f,     0.008241011f,     0.022860480f,     0.017683482f,     -0.012728794f,     0.019214517f,     -0.018120516f,
    -0.009888764f,     -0.014360705f,     0.032135237f,     0.001283050f,     0.029397765f,     0.028559690f,     -0.022529952f,     0.012218268f,
    -0.011408087f,     -0.001352898f,     -0.005068617f,     0.015740318f,     0.020751690f,     0.026323158f,     -0.024501296f,     -0.022497000f,
    0.032702215f,     0.015603901f,     -0.031471588f,     -0.003557686f,     -0.000023067f,     0.016695479f,     -0.021809537f,     0.021584613f,
    0.024389230f,     0.033044927f,     0.008440610f,     -0.017550200f,     0.032158062f,     -0.032668937f,     -0.017716944f,     -0.013438370f,
    -0.018974343f,     -0.001542683f,     0.034847885f,     0.005653407f,     -0.032126915f,     0.028760280f,     -0.007265351f,     -0.027038511f,
    -0.012148620f,     -0.012827252f,     0.021521071f,     -0.014996785f,     0.024550660f,     0.031381905f,     0.016368199f,     0.018945452f,
    -0.012051161f,     0.014741783f,     0.003283590f,     -0.001129815f,     0.027854558f,     -0.033304181f,     0.020276675f,     -0.028994652f,
    0.011809115f,     0.023328323f,     -0.020509196f,     -0.024102604f,     0.011318463f,     -0.027715351f,     -0.030937873f,     0.010402254f,
    -0.022512769f,     0.026995596f,     -0.031305254f,     0.030478751f,     -0.011308517f,     0.021096192f,     0.017932577f,     0.005228754f,
    -0.017900612f,     0.016935861f,     -0.030732935f,     0.029868055f,     0.014047028f,     0.008066757f,     0.020603325f,     0.011224641f,
    -0.012661300f,     0.005695147f,     -0.024637943f,     -0.002668406f,     -0.004940574f,     0.022730334f,     -0.010125441f,     -0.004093128f,
    -0.028444471f,     -0.015393594f,     0.021943552f,     0.015427548f,     -0.015937086f,     -0.018681237f,     0.003189747f,     -0.001993652f,
    -0.004694837f,     0.027041620f,     -0.025019927f,     0.012952277f,     -0.004303596f,     0.025797198f,     0.023508621f,     0.026351819f,
    -0.032457542f,     0.033285897f,     0.020415835f,     -0.015181662f,     -0.034610745f,     -0.022808170f,     0.033248302f,     0.027173588f,
    -0.034556951f,     0.022441896f,     0.026698625f,     0.029802950f,     0.029552346f,     -0.007789736f,     0.012884797f,     -0.000382134f,
    -0.017867396f,     0.003003035f,     0.032217313f,     0.011571357f,     0.009124552f,     0.004226191f,     -0.021839684f,     0.015509517f,
    -0.024424367f,     -0.007460011f,     -0.005191778f,     0.033748560f,     -0.019231265f,     -0.004587966f,     0.019346246f,     -0.027257355f,
    -0.032206018f,     -0.026800042f,     0.003234719f,     0.015586858f,     0.012084157f,     -0.021083960f,     0.002825350f,     0.032853179f,
    -0.020452509f,     0.022380212f,     0.005867848f,     0.020297481f,     0.020896709f,     0.007505924f,     0.026071263f,     0.026496174f,
    -0.009799328f,     0.025729381f,     -0.014792417f,     0.000372925f,     0.002149642f,     -0.031226005f,     -0.020253468f,     -0.026540162f,
    0.015136992f,     -0.007183441f,     -0.020215474f,     -0.000741299f,     0.001917631f,     0.009301931f,     -0.008662063f,     0.026422506f,
    0.018988814f,     -0.009743529f,     0.016770683f,     -0.022069119f,     -0.018396923f,     -0.034879990f,     -0.023976488f,     -0.007421920f,
    0.008921560f,     0.033104405f,     -0.009185029f,     0.006006045f,     0.024500312f,     0.028867902f,     0.005224543f,     -0.009773183f,
    -0.029436130f,     0.032148942f,     0.007279486f,     0.002942988f,     0.031069692f,     -0.025672054f,     0.016819052f,     -0.011111499f,
    0.010085051f,     -0.020005746f,     -0.035016298f,     0.027446732f,     -0.011722089f,     -0.030696249f,     0.008144064f,     0.013312157f,
    -0.001071249f,     -0.005794219f,     -0.027064282f,     0.034119688f,     -0.015596331f,     -0.002773783f,     0.024942765f,     0.007668649f,
    -0.004714042f,     0.027456285f,     -0.018220335f,     -0.021493401f,     -0.032390729f,     -0.032912858f,     0.012262822f,     0.032257158f,
    0.005001877f,     -0.028736942f,     -0.013224462f,     0.035053659f,     0.014652346f,     -0.020876983f,     0.008486782f,     0.015298576f,
    -0.034821410f,     -0.016611611f,     0.011052852f,     -0.021369088f,     0.029567072f,     -0.012801145f,     -0.012224679f,     -0.015201518f,
    -0.001554089f,     -0.031359721f,     -0.003367684f,     0.008324057f,     -0.028106453f,     0.017383389f,     0.025790514f,     -0.018024331f,
    -0.025924500f,     -0.009132024f,     0.012361748f,     -0.019394178f,     -0.016699834f,     0.010218284f,     0.030181274f,     -0.029968442f,
    0.008483312f,     -0.017700966f,     0.024481472f,     -0.011947931f,     0.030461675f,     -0.026856342f,     -0.007936959f,     -0.013177992f,
    -0.026270263f,     -0.006100770f,     -0.022846730f,     0.010295111f,     -0.002825490f,     -0.003336749f,     0.030332422f,     -0.023295356f,
    -0.005857260f,     -0.031691857f,     0.028759081f,     0.004722561f,     0.030300006f,     -0.019765574f,     0.010717312f,     0.015157376f,
    0.000837739f,     -0.030236438f,     -0.021389183f,     0.028448388f,     -0.029097298f,     -0.032286540f,     -0.011222682f,     0.014920057f,
    -0.027840534f,     0.013878597f,     -0.002769223f,     -0.031872030f,     0.002652790f,     0.008382848f,     -0.012983893f,     0.004399623f,
    0.025522698f,     0.026501052f,     0.011454919f,     0.034057289f,     -0.019963989f,     -0.001741201f,     0.020287961f,     0.021936886f,
    -0.033779789f,     -0.016550388f,     -0.015994459f,     0.010707754f,     0.019183317f,     -0.018147819f,     0.010394497f,     -0.000140160f,
    -0.024395769f,     0.006529195f,     0.016937938f,     0.025693597f,     -0.007585309f,     0.026440663f,     0.026265005f,     0.019500073f,
    -0.007516763f,     0.027287234f,     -0.031843349f,     -0.035176985f,     -0.027074419f,     0.001208339f,     -0.026411586f,     -0.023857327f,
    -0.018723050f,     0.005087917f,     -0.023070218f,     0.008981446f,     -0.017734384f,     0.035223767f,     -0.032228667f,     -0.010868643f,
    -0.005826844f,     -0.007792290f,     0.003051315f,     0.008443241f,     0.031841304f,     -0.020786474f,     -0.027092343f,     -0.016457355f,
    -0.030299881f,     -0.000311724f,     0.019488404f,     0.020678930f,     -0.007397213f,     0.010486842f,     -0.030036638f,     -0.012865932f,
    -0.031502213f,     0.006213401f,     0.008310702f,     0.009258977f,     -0.022867506f,     0.007837245f,     -0.015261557f,     0.030826770f,
    -0.000368352f,     -0.030567184f,     -0.001864680f,     -0.019945823f,     -0.033378113f,     0.029140517f,     0.017347723f,     0.017389605f,
    -0.032935467f,     0.031010518f,     0.003440440f,     -0.013996014f,     0.033107836f,     0.006406550f,     -0.007991591f,     -0.019735107f,
    -0.019666523f,     -0.009315193f,     0.021921551f,     -0.027847048f,     0.007257279f,     0.003973910f,     0.032703429f,     -0.011745108f,
    0.035564885f,     -0.002204099f,     0.029595844f,     0.013919801f,     0.032247685f,     0.032219399f,     0.002289206f,     -0.000074016f,
    -0.022875344f,     -0.009180418f,     -0.011340980f,     0.014870525f,     -0.021950128f,     0.011246256f,     0.035059590f,     0.004361553f,
    0.017597893f,     0.011160906f,     -0.020062005f,     0.008533061f,     -0.017265683f,     0.017446382f,     0.033502527f,     0.008906050f,
    -0.031257577f,     -0.005980526f,     0.009329924f,     0.027814027f,     0.031998955f,     -0.014307555f,     -0.011714796f,     -0.022748025f,
    0.021123845f,     0.001383398f,     0.000139500f,     0.000504690f,     0.031985935f,     -0.015637327f,     -0.020864539f,     0.013127336f,
    -0.007810934f,     -0.030853247f,     -0.006761155f,     -0.034088545f,     0.006933983f,     0.033302084f,     0.009550482f,     0.033352584f,
    -0.012534278f,     0.031097610f,     0.034212194f,     -0.020877669f,     0.026199605f,     -0.026594790f,     0.005498643f,     0.031801414f,
    -0.022740645f,     0.001679744f,     -0.031263173f,     -0.003413997f,     0.016032327f,     0.013465546f,     -0.001344208f,     0.009475185f,
    -0.013472230f,     0.032500099f,     -0.009146253f,     -0.029680774f,     0.010758277f,     -0.013390074f,     -0.032423951f,     0.001924332f,
    0.017613990f,     0.033004552f,     -0.015465720f,     0.015512161f,     0.010788109f,     -0.018207841f,     -0.028328411f,     -0.024587564f,
    -0.012136719f,     -0.028984830f,     -0.034593001f,     0.017313970f,     0.027350564f,     -0.018347358f,     -0.034843761f,     -0.031613454f,
    0.035700317f,     0.026058210f,     0.025689896f,     0.026312752f,     -0.024852060f,     -0.018537659f,     0.020035280f,     0.011968354f,
    0.030702997f,     -0.028040335f,     -0.000979807f,     -0.027897853f,     -0.025487347f,     0.011393313f,     -0.034601297f,     0.003489235f,
    0.009077626f,     0.003306542f,     -0.029930703f,     -0.019683003f,     -0.015392734f,     0.006943809f,     0.022973079f,     -0.004998505f,
    0.012578977f,     -0.019001940f,     0.003958174f,     0.034236562f,     0.009169605f,     0.014475359f,     0.034287866f,     0.023059851f,
    0.006745534f,     0.011133616f,     -0.011079410f,     0.031019624f,     -0.022397978f,     0.006827057f,     0.002622021f,     -0.012553168f,
    -0.022353897f,     0.016270429f,     0.020223064f,     -0.024335070f,     0.026097188f,     0.031322986f,     -0.033679884f,     0.033883821f,
    0.017529666f,     -0.009064747f,     0.028926587f,     0.025145553f,     0.000363375f,     -0.028329948f,     0.001912075f,     0.015635474f,
    -0.024480170f,     0.003880722f,     -0.006957353f,     0.034515560f,     -0.034848001f,     0.026141597f,     0.023623655f,     0.025127131f,
    0.011005704f,     -0.012681941f,     -0.010558423f,     0.003914680f,     0.026968054f,     0.029992267f,     0.031229068f,     0.028882105f,
    0.030046051f,     -0.025569299f,     0.030630309f,     0.022992196f,     0.014815156f,     0.011398853f,     -0.016428169f,     -0.015025591f,
    -0.002079508f,     0.014320919f,     -0.002974438f,     0.003249990f,     0.017919797f,     -0.030380199f,     -0.009582439f,     -0.017549090f,
    -0.023240758f,     -0.028360041f,     0.031873483f,     -0.007240023f,     -0.005564639f,     0.022783013f,     0.024598969f,     -0.030879572f,
    -0.033310156f,     -0.014686607f,     -0.003837104f,     -0.014861371f,     0.003555145f,     -0.026807221f,     -0.015697051f,     -0.005472337f,
    -0.013744337f,     0.003395690f,     -0.008937879f,     0.006998888f,     -0.028180188f,     -0.003061542f,     0.009622557f,     0.031231716f,
    -0.028495207f,     -0.033480570f,     -0.019233525f,     0.011529621f,     0.004720846f,     0.019094788f,     0.015586905f,     -0.009811768f,
    -0.019819057f,     0.016266419f,     0.021184821f,     -0.006989407f,     -0.035174675f,     -0.008445621f,     0.019599881f,     0.016293330f,
    -0.023456208f,     -0.008843976f,     0.026111962f,     0.033594675f,     0.010089457f,     -0.010190155f,     -0.019684656f,     -0.005564852f,
    0.010434981f,     -0.033737499f,     0.019025177f,     -0.019891663f,     0.010382963f,     0.011601206f,     -0.016331971f,     -0.014800290f,
    -0.000449487f,     -0.011790532f,     0.033357680f,     -0.016218897f,     0.004023450f,     0.011466972f,     0.027728815f,     -0.007821947f,
    -0.008054427f,     -0.000137572f,     -0.028944293f,     0.031538676f,     -0.003659202f,     -0.003450164f,     0.016279852f,     0.003159059f,
    -0.011887709f,     -0.013803679f,     0.027461667f,     -0.018611431f,     -0.018679833f,     0.008341713f,     0.031882279f,     0.027893595f,
    0.024817796f,     0.023131397f,     0.019899905f,     -0.033775292f,     0.034422766f,     -0.035178479f,     0.023593755f,     -0.001115952f,
    0.021173410f,     0.003350283f,     0.004558921f,     -0.003300803f,     -0.023429008f,     -0.001922250f,     0.016207194f,     0.035031397f,
    -0.022565447f,     -0.035114300f,     -0.003994256f,     -0.023274014f,     0.030077301f,     -0.021115275f,     0.033358566f,     0.026988916f,
    0.005584683f,     0.032115102f,     0.005514716f,     0.023336241f,     -0.004355329f,     0.006199228f,     -0.021556843f,     0.006257607f,
    0.016627623f,     -0.019898811f,     0.031908203f,     0.020518010f,     -0.023588832f,     -0.024429735f,     0.019545663f,     -0.022613926f,
    0.008353847f,     0.025770810f,     -0.008415005f,     -0.018612441f,     0.033577573f,     -0.023108581f,     -0.028159508f,     0.015693933f,
    -0.035580833f,     -0.034934539f,     0.032215603f,     0.010758294f,     -0.001029334f,     0.011007446f,     0.013959558f,     0.030197272f,
    -0.031425763f,     0.018915905f,     0.017041139f,     -0.034246076f,     0.010168034f,     0.000491138f,     0.024578027f,     0.019118242f,
    0.008654663f,     0.002372444f,     0.025586244f,     0.000383769f,     0.002714179f,     -0.015017502f,     -0.027943289f,     0.009131223f,
    0.007386174f,     0.029131163f,     0.010376403f,     0.030400030f,     -0.010543738f,     0.025746020f,     0.014905313f,     -0.033121832f,
    0.015970690f,     0.003590678f,     0.003285357f,     0.007932085f,     -0.028039882f,     0.027167985f,     -0.033055242f,     0.020028276f,
    -0.015388323f,     0.032249134f,     -0.033285607f,     -0.011232602f,     -0.023436619f,     0.030725714f,     0.034397043f,     0.021051042f,
    -0.004118336f,     -0.022398438f,     -0.029497374f,     0.035500452f,     0.010203588f,     -0.032330114f,     0.008792988f,     -0.035082184f,
    0.007032165f,     -0.001193847f,     -0.002183953f,     0.014084089f,     0.002946253f,     -0.002739834f,     -0.022038538f,     0.009974642f,
    0.019417912f,     0.011792613f,     0.017530033f,     0.032148700f,     0.033469997f,     -0.002129951f,     -0.018170618f,     -0.013960035f,
    -0.021381022f,     0.000114058f,     0.000084366f,     -0.031137668f,     0.023309339f,     -0.009280844f,     0.024176126f,     -0.023377378f,
    0.000262912f,     0.003270690f,     -0.029505543f,     -0.029261854f,     -0.012854470f,     -0.026972577f,     -0.015381299f,     0.009951515f,
    0.029303130f,     -0.035700679f,     0.008956139f,     -0.018875128f,     -0.004398202f,     0.024382060f,     -0.033358373f,     0.030178757f,
    -0.014738612f,     -0.001264419f,     -0.029106043f,     -0.013842477f,     -0.004545429f,     -0.024103465f,     0.011447618f,     -0.031211067f,
    0.000098974f,     0.007202532f,     -0.031595845f,     -0.016020579f,     0.017798003f,     0.009212575f,     -0.013502650f,     -0.000452365f,
    0.030494854f,     -0.017391492f,     -0.029638031f,     -0.028967701f,     0.023508074f,     -0.027466984f,     0.029620031f,     -0.017958254f,
    0.018016769f,     0.006597587f,     0.029989257f,     -0.013395203f,     0.015515911f,     -0.024675256f,     -0.017713595f,     0.017994128f,
    -0.027463660f,     -0.010511790f,     -0.009651235f,     0.028664842f,     0.019798642f,     0.034747820f,     -0.031027187f,     0.024930691f,
    -0.013289401f,     0.012384454f,     0.012155342f,     0.015164968f,     -0.020827580f,     0.018927265f,     -0.000527940f,     0.031541344f,
    -0.011671548f,     -0.018264879f,     0.022441499f,     0.006161873f,     0.031760365f,     0.010252694f,     0.027062580f,     0.031443316f,
    -0.005841243f,     -0.020140789f,     0.013191147f,     0.017025132f,     -0.029582025f,     0.027446574f,     0.018787049f,     0.032441325f,
    0.024175288f,     0.023025479f,     -0.034993671f,     -0.004090084f,     -0.007333905f,     0.014399512f,     -0.026601303f,     0.000077597f,
    -0.002474849f,     -0.033805471f,     -0.025444623f,     -0.025590289f,     -0.014645748f,     -0.006924706f,     -0.032185730f,     -0.022084096f,
    -0.011587552f,     -0.015477266f,     -0.018136093f,     0.023937149f,     0.034765981f,     0.010819930f,     0.016381031f,     0.034801114f,
    -0.019376321f,     0.032212228f,     0.025174312f,     -0.021797044f,     0.008127699f,     -0.001686897f,     0.027457217f,     -0.007070721f,
    -0.021687007f,     0.002105304f,     -0.025733503f,     0.034623630f,     -0.022537237f,     0.012500099f,     -0.027070571f,     0.014520858f,
    -0.024201062f,     0.003189164f,     -0.012728739f,     -0.030885860f,     -0.008396464f,     0.023336884f,     -0.019446958f,     0.004677504f,
    0.004563945f,     0.022159493f,     0.019727699f,     0.023591336f,     -0.031965870f,     -0.000860193f,     -0.017885286f,     0.022609064f,
    0.029061677f,     -0.009616490f,     0.018884821f,     0.007072207f,     -0.027721602f,     -0.011160562f,     0.010543628f,     0.003547456f,
    -0.027692460f,     -0.017774314f,     -0.025463236f,     -0.035676051f,     0.011222478f,     0.031344540f,     -0.022990799f,     0.011263401f,
    -0.024514114f,     -0.002388929f,     0.024965402f,     0.025536977f,     0.005558078f,     0.023324993f,     -0.007392092f,     0.026529543f,
    -0.017328722f,     0.004991055f,     -0.005317705f,     0.035507526f,     0.001988220f,     -0.008254733f,     0.005164232f,     -0.033515751f,
    -0.018579923f,     -0.009719590f,     -0.014383142f,     -0.017605294f,     0.028189754f,     -0.002948233f,     0.021951962f,     0.034900114f,
    -0.032211214f,     0.029911485f,     -0.006017162f,     -0.020557780f,     0.005848284f,     -0.010193710f,     0.014707442f,     0.004734891f,
    -0.020835780f,     -0.020023359f,     0.034131996f,     0.019065019f,     -0.013100714f,     0.015903559f,     -0.023596348f,     0.003943337f,
    -0.013502683f,     -0.009198938f,     -0.014716217f,     0.022737078f,     0.029152399f,     0.000962951f,     -0.022516822f,     0.016068388f,
    -0.023874773f,     -0.005304307f,     -0.002936789f,     -0.004392288f,     -0.014077502f,     -0.027545407f,     -0.034077149f,     0.032921247f,
    0.008845619f,     -0.009256614f,     0.004653965f,     -0.007582209f,     0.011482150f,     -0.001989658f,     0.024030887f,     0.027029894f,
    -0.012224909f,     -0.027712407f,     -0.021442158f,     -0.000390542f,     0.034165043f,     -0.008713139f,     0.020604040f,     -0.008008089f,
    0.002790758f,     0.030418279f,     0.026874505f,     0.015952596f,     0.030423209f,     0.021580331f,     0.005347273f,     -0.026812652f,
    0.011156244f,     0.033102565f,     -0.006730919f,     0.024557473f,     0.007290755f,     -0.006530170f,     -0.017390843f,     -0.010492087f,
    0.008098360f,     -0.011412540f,     -0.034866877f,     -0.035258081f,     -0.001369093f,     0.007723481f,     -0.020180473f,     -0.008939216f,
    -0.028188605f,     0.031616945f,     -0.019821819f,     -0.025177173f,     -0.034400333f,     0.031021770f,     0.018714003f,     0.012914833f,
    0.026859852f,     0.006998901f,     -0.006897914f,     -0.021959297f,     -0.009199841f,     -0.026892072f,     0.035306405f,     0.002214364f,
    -0.022806207f,     0.015661497f,     0.035504028f,     -0.005328945f,     0.002363469f,     0.002092604f,     -0.020377612f,     0.007523180f,
    0.033995695f,     -0.003476990f,     -0.012508980f,     -0.003244298f,     0.029886132f,     0.027933564f,     -0.017647106f,     0.014439094f,
    0.029945353f,     0.029038073f,     0.004423073f,     -0.009462017f,     -0.020185698f,     -0.020636512f,     -0.010220107f,     -0.029540988f,
    0.011644577f,     -0.011557640f,     -0.019274218f,     0.035194974f,     0.023659384f,     0.025373293f,     -0.006886253f,     -0.021705905f,
    -0.030816868f,     -0.024629185f,     -0.013530468f,     0.019825485f,     -0.014195396f,     -0.026441975f,     -0.030342767f,     0.001451041f,
    -0.014040552f,     -0.007087176f,     -0.000090229f,     -0.028356617f,     -0.031879179f,     0.016534900f,     -0.008132577f,     0.016577793f,
    -0.007088002f,     0.016552454f,     0.014039475f,     -0.011563591f,     -0.021677805f,     0.011038061f,     -0.005616763f,     0.029342504f,
    -0.022068109f,     -0.001614928f,     -0.005473516f,     -0.015805896f,     0.026656939f,     0.015533159f,     -0.020538488f,     0.022555348f,
    -0.028920311f,     0.006258560f,     0.025530595f,     -0.023562880f,     -0.004766464f,     0.019286549f,     -0.022301650f,     0.031517461f,
    -0.022312846f,     -0.002366858f,     0.035567816f,     0.022320587f,     -0.027486900f,     -0.004546115f,     -0.012574282f,     -0.016217399f,
    0.030728456f,     0.034080349f,     -0.005816869f,     0.022056801f,     0.009656442f,     0.007171082f,     0.034498598f,     0.028055869f,
    0.021565175f,     -0.013964007f,     -0.022714598f,     0.022966616f,     -0.002259063f,     -0.012466823f,     -0.017409321f,     -0.004141403f,
    0.008806735f,     0.011355933f,     -0.010339755f,     0.027977528f,     0.033971455f,     0.033737894f,     -0.025500568f,     -0.015683452f,
    0.034892451f,     -0.015247993f,     -0.010178613f,     0.030338034f,     -0.029721726f,     0.027653087f,     -0.009764927f,     0.015331465f,
    0.011127932f,     -0.014493139f,     -0.011153226f,     -0.011681664f,     0.005068107f,     0.025208121f,     -0.002199799f,     -0.010001170f,
    -0.013152915f,     -0.014168080f,     -0.034388572f,     0.014692550f,     0.024494750f,     0.025057752f,     -0.022166440f,     0.011512698f,
    -0.022443002f,     -0.009276330f,     0.029868701f,     -0.033686124f,     -0.018058386f,     0.018413225f,     -0.029844694f,     -0.004412328f,
    0.024548920f,     0.021401696f,     -0.023438672f,     -0.002437072f,     -0.009876801f,     0.001157965f,     -0.004295154f,     0.002537153f,
    -0.030242750f,     -0.006168668f,     -0.023458702f,     -0.010286272f,     -0.010177004f,     -0.029273750f,     0.030334428f,     -0.012919912f,
    0.009210404f,     -0.011152706f,     -0.006257402f,     -0.021169038f,     0.020532856f,     -0.000029581f,     0.018092079f,     0.011268620f,
    0.031593882f,     0.011856160f,     0.015231725f,     -0.034018017f,     -0.009283513f,     -0.017543789f,     0.005211060f,     0.013071815f,
    -0.031610876f,     0.001628931f,     0.006167591f,     0.020864900f,     0.008927746f,     -0.015746152f,     0.033351734f,     -0.035494126f,
    0.024715545f,     0.013522093f,     0.015245561f,     -0.025316400f,     0.030480646f,     0.006226284f,     0.033082597f,     -0.006985950f,
    0.002103159f,     0.008511190f,     -0.002010742f,     -0.003190526f,     -0.005312588f,     -0.016366875f,     -0.021064900f,     0.023383649f,
    -0.001433253f,     -0.032057922f,     0.019688016f,     -0.035195142f,     0.023541380f,     -0.022194246f,     -0.016646620f,     -0.005548878f,
    -0.033451177f,     0.020261645f,     0.003107301f,     0.017687824f,     -0.012951733f,     0.001289640f,     -0.034833744f,     0.019753445f,
    -0.009826601f,     -0.005900950f,     0.034991495f,     -0.016820990f,     -0.030830469f,     -0.020567516f,     -0.012527743f,     0.035534725f,
    0.025506655f,     -0.031801097f,     -0.020356201f,     -0.002973816f,     -0.014919507f,     0.032185074f,     0.024998909f,     0.022535963f,
    -0.015168203f,     -0.018410474f,     -0.025539301f,     -0.030887891f,     0.020967314f,     -0.028303795f,     0.001474819f,     -0.016807830f,
    0.013295647f,     0.004034890f,     0.000317071f,     0.014210813f,     -0.009080653f,     0.035196532f,     0.007465661f,     -0.031562023f,
    -0.013690216f,     -0.007008387f,     -0.017288541f,     0.019337455f,     0.012587505f,     0.018929703f,     -0.034110095f,     -0.013709299f,
    -0.007977060f,     -0.027813278f,     0.031653769f,     0.026967399f,     -0.018941432f,     0.010555727f,     0.020850247f,     -0.001269473f,
    -0.021899587f,     0.022815611f,     -0.001057548f,     -0.003135554f,     0.009881114f,     -0.022017157f,     -0.005718368f,     0.030409874f,
    -0.017790098f,     0.023785073f,     -0.007705348f,     0.004479855f,     -0.017490489f,     -0.032276977f,     -0.014568956f,     0.016178835f,
    -0.029645376f,     -0.029520053f,     0.016845133f,     0.023010200f,     -0.019651843f,     0.012264052f,     0.033313110f,     0.010694394f,
    -0.014511479f,     0.023974296f,     -0.007978866f,     0.027328851f,     -0.028776230f,     0.026952388f,     0.021485867f,     -0.025416082f,
    -0.010676832f,     0.033179116f,     0.033292197f,     -0.034103449f,     -0.031251270f,     0.021318054f,     0.002453987f,     -0.013249836f,
    0.006224288f,     -0.023981044f,     -0.002095482f,     -0.023347115f,     -0.014009063f,     0.031074857f,     -0.023306822f,     -0.016450351f,
    -0.035505738f,     0.009595046f,     0.017442666f,     0.005188832f,     -0.008132449f,     -0.027781608f,     -0.019201884f,     -0.033906870f,
    -0.007114590f,     -0.008553663f,     -0.009071699f,     0.007657469f,     -0.021346267f,     -0.009691579f,     -0.001712722f,     0.013111788f,
    0.031157503f,     0.011344676f,     -0.028362986f,     0.008052456f,     -0.005760896f,     0.016460322f,     -0.032439638f,     0.021942055f,
    -0.002344379f,     0.018573813f,     0.027646799f,     -0.031728506f,     -0.031978991f,     -0.027481906f,     0.009619666f,     -0.017366350f,
    0.010218238f,     -0.021583116f,     0.028707037f,     -0.013399933f,     -0.034392875f,     -0.002235949f,     0.034152649f,     0.010795296f,
    0.000324590f,     -0.001318634f,     0.028303195f,     -0.020296182f,     0.009323878f,     -0.030603845f,     -0.007455519f,     -0.013384743f,
    -0.022797398f,     -0.020233601f,     -0.007807200f,     -0.018711589f,     -0.035189845f,     -0.013357402f,     -0.029292542f,     -0.008041910f,
    -0.011110366f,     0.013821360f,     -0.027994132f,     0.014302962f,     0.002515691f,     -0.022256168f,     0.020750482f,     0.020025356f,
    -0.007801567f,     0.001298794f,     -0.004066208f,     0.034303240f,     -0.026660968f,     0.009990513f,     -0.022799881f,     0.021639498f,
    -0.016854104f,     0.012473273f,     0.003974251f,     0.010171648f,     0.012744108f,     0.028640637f,     0.012937542f,     -0.004851311f,
    -0.033067215f,     0.013015709f,     -0.035214424f,     0.005740847f,     -0.017650269f,     0.000584998f,     -0.032291301f,     -0.035224404f,
    0.030487334f,     0.015904469f,     0.014770572f,     -0.024192832f,     0.011338881f,     -0.031182772f,     0.032037832f,     -0.001491253f,
    0.013904397f,     0.034820557f,     0.001124923f,     0.007049284f,     -0.030301759f,     0.015213937f,     0.006477603f,     0.011559994f,
    0.024546854f,     -0.015974760f,     -0.008401475f,     0.029261276f,     -0.010240287f,     0.002066097f,     -0.005334735f,     0.002266037f,
    0.010626240f,     -0.020570470f,     -0.033004697f,     -0.002442594f,     -0.003818061f,     -0.005625593f,     0.024854699f,     -0.024688942f,
    0.011711155f,     -0.019187540f,     -0.015394075f,     0.027524013f,     -0.013485045f,     0.023661559f,     -0.018702675f,     -0.026082376f,
    -0.029309411f,     -0.010993404f,     0.026239248f,     -0.013785589f,     0.015581213f,     0.031772770f,     0.010559610f,     -0.001697059f,
    -0.019147810f,     0.025019290f,     0.008212048f,     -0.018925196f,     -0.002953585f,     0.016961014f,     0.014352752f,     0.031919327f,
    0.012110460f,     -0.028616617f,     0.026333490f,     0.013265644f,     -0.013498890f,     0.000515891f,     0.001182918f,     0.009155772f,
    0.010747982f,     0.003544097f,     0.010363085f,     0.007407521f,     0.002261179f,     0.006129082f,     -0.002718121f,     0.012381146f,
    0.026515327f,     -0.011256848f,     0.022575499f,     -0.012378472f,     -0.013410948f,     0.016038993f,     -0.008436416f,     0.002606345f,
    0.005649848f,     -0.008084302f,     -0.032268461f,     0.028622543f,     0.024719065f,     -0.009257087f,     0.007972156f,     0.026756024f,
    -0.030259363f,     -0.023565553f,     -0.021087715f,     -0.004731851f,     0.014661674f,     -0.035515726f,     -0.030397894f,     0.025578108f,
    -0.026806237f,     -0.013556273f,     -0.018740792f,     -0.018080903f,     0.030170169f,     -0.023934348f,     -0.027876101f,     -0.019654697f,
    -0.026216205f,     0.021546889f,     0.035275258f,     -0.004998246f,     0.018682171f,     0.006811074f,     0.027850511f,     0.030927779f,
    -0.027420467f,     0.002176259f,     0.035111621f,     0.008070546f,     0.005290006f,     0.016891999f,     0.012420625f,     -0.005072488f,
    -0.016031172f,     -0.003384948f,     0.003402949f,     -0.028581914f,     0.000358079f,     0.030181903f,     -0.013745611f,     -0.005020435f,
    -0.012536760f,     -0.012844393f,     -0.027907738f,     -0.015033471f,     0.023035821f,     -0.013464523f,     -0.019823361f,     -0.032587636f,
    -0.006166906f,     -0.013130474f,     -0.010234646f,     0.016932059f,     -0.019355319f,     0.019051220f,     -0.032381207f,     0.015520731f,
    -0.004434620f,     -0.024769491f,     0.009420979f,     0.019755701f,     -0.024780663f,     -0.028219434f,     -0.015266751f,     -0.017049190f,
    0.030956555f,     0.007583993f,     -0.030449744f,     0.004425535f,     0.007028589f,     -0.012534232f,     -0.000368110f,     0.023260249f,
    0.016693857f,     -0.005636684f,     0.015029112f,     0.008714076f,     -0.034378812f,     0.024391014f,     0.003359561f,     0.028730402f,
    0.007459632f,     -0.003067051f,     0.014131666f,     0.013063129f,     -0.008848736f,     -0.033794463f,     -0.014840634f,     -0.008252642f,
    -0.007695343f,     0.014522817f,     0.012560462f,     0.012250663f,     0.030259572f,     0.001259791f,     0.022142846f,     0.032696314f,
    -0.016881455f,     0.002659168f,     -0.027043000f,     0.008340943f,     0.010469769f,     -0.030764990f,     -0.023636112f,     0.006560130f,
    0.019631259f,     -0.005454315f,     0.010001672f,     -0.001339717f,     -0.028097294f,     0.034246534f,     0.019088274f,     -0.030125143f,
    0.018437564f,     0.033347804f,     0.024938436f,     0.025891449f,     0.004323108f,     0.023811717f,     -0.005621893f,     -0.028685946f,
    -0.014287860f,     -0.025384475f,     -0.026341116f,     0.022547293f,     0.021550043f,     0.027117850f,     -0.006850094f,     0.019316640f,
    0.014984468f,     0.034325264f,     0.032239005f,     -0.000917128f,     0.008622306f,     -0.000646136f,     0.028894609f,     0.015186940f,
    0.003797902f,     0.016097065f,     0.017501159f,     0.031268433f,     0.015041927f,     0.001582495f,     -0.007154273f,     -0.015217926f,
    0.028832514f,     -0.014641920f,     -0.024243427f,     -0.001609177f,     0.029925879f,     -0.004199079f,     0.027352985f,     0.026028924f,
    0.018669982f,     0.021720303f,     0.027305277f,     -0.030385371f,     0.004114104f,     -0.009590158f,     0.020293633f,     -0.030904299f,
    -0.017143769f,     -0.002534066f,     0.006986146f,     -0.007576632f,     -0.035013992f,     0.010675248f,     0.025629075f,     0.035363980f,
    -0.034979843f,     0.035382770f,     -0.012960251f,     -0.013575865f,     -0.001504762f,     0.009483900f,     0.021958800f,     -0.021543849f,
    0.032534260f,     -0.025550367f,     0.007094958f,     0.029539028f,     -0.009625486f,     0.020212987f,     0.016541056f,     -0.013296635f,
    -0.031889662f,     -0.005056267f,     -0.029353028f,     0.014750124f,     0.017021112f,     0.030674811f,     -0.002201617f,     -0.001121249f,
    -0.031528931f,     0.032854330f,     -0.009796935f,     -0.003624295f,     0.007210868f,     0.016356491f,     0.008583968f,     0.024364468f,
    -0.019211868f,     -0.009326658f,     0.006943558f,     -0.021052664f,     0.029277330f,     -0.013022146f,     -0.000045070f,     0.027286561f,
    -0.028318649f,     -0.019987278f,     -0.007991170f,     -0.014506690f,     0.020704351f,     0.010227251f,     0.022973351f,     0.022267083f,
    0.003745956f,     -0.013043864f,     -0.012410318f,     -0.030971035f,     -0.030189039f,     0.013133897f,     -0.035099614f,     -0.026360972f,
    -0.034452319f,     -0.026542295f,     -0.009474683f,     0.002339018f,     0.029386453f,     -0.018039219f,     -0.006150063f,     0.027666889f,
    0.035192527f,     0.033996563f,     0.025619933f,     -0.032639112f,     0.025598442f,     0.014456775f,     -0.009714004f,     -0.003220443f,
    0.008988117f,     -0.009901631f,     0.022958012f,     -0.016448328f,     0.009852568f,     -0.001883405f,     0.015372860f,     -0.007177745f,
    -0.003340977f,     -0.011955411f,     -0.022900021f,     -0.002437081f,     0.020946058f,     0.017605711f,     -0.003042770f,     -0.009140824f,
    0.027242705f,     -0.018386019f,     0.034456905f,     0.001819981f,     0.012054848f,     -0.002608086f,     0.020772535f,     -0.022693563f,
    0.029000198f,     0.018996973f,     0.026855912f,     0.006677734f,     -0.025314486f,     0.010190973f,     0.008325411f,     -0.029831002f,
    -0.015361642f,     -0.016946385f,     -0.016040258f,     -0.013189193f,     0.021721521f,     0.025139656f,     0.032122456f,     0.000592755f,
    -0.018573940f,     0.013625835f,     -0.018036861f,     0.027929332f,     0.008690421f,     0.035289895f,     -0.011387298f,     -0.030729070f,
    0.010948961f,     0.004896637f,     0.025449784f,     -0.010063236f,     0.025637798f,     -0.026752137f,     0.009351254f,     -0.026344215f,
    0.018806659f,     -0.031876881f,     0.023129979f,     -0.026624490f,     -0.030489927f,     -0.031031134f,     0.028995268f,     0.020960294f,
    -0.003913743f,     -0.018533278f,     0.002504949f,     -0.033507429f,     0.022561010f,     -0.020819902f,     -0.008894359f,     -0.028165551f,
    0.027773773f,     0.034979254f,     0.007621502f,     -0.029288098f,     -0.003158919f,     -0.008689660f,     -0.017707337f,     -0.029790228f,
    0.010156768f,     0.021286149f,     0.025280839f,     0.024321748f,     -0.019337673f,     -0.026923463f,     0.003040156f,     0.028315090f,
    -0.020851536f,     0.027924778f,     -0.007307900f,     -0.003621404f,     0.005935805f,     0.032753251f,     0.014598328f,     0.026832378f,
    -0.026731791f,     0.014426590f,     0.021368241f,     -0.023444287f,     0.014493428f,     0.010071483f,     -0.011025420f,     -0.013605821f,
    0.022420200f,     0.009702964f,     -0.035418317f,     -0.027165797f,     -0.011457418f,     -0.008314503f,     -0.001397227f,     -0.024990011f,
    0.012292287f,     0.010600742f,     0.032122057f,     -0.029920869f,     -0.009065795f,     -0.023578705f,     0.004404238f,     0.032938860f,
    -0.019267811f,     -0.028291043f,     -0.018413497f,     0.035109900f,     0.011116046f,     0.026684724f,     -0.013444339f,     0.011000873f,
    0.032530665f,     0.006069205f,     -0.032718465f,     -0.032316960f,     -0.010769547f,     0.015656272f,     -0.004904245f,     0.002946756f,
    0.010792515f,     0.021890828f,     -0.034963459f,     -0.015652908f,     0.028843822f,     0.022458317f,     -0.013645309f,     -0.007597208f,
    0.013763820f,     0.035023086f,     0.001353017f,     0.024799356f,     -0.032584779f,     -0.022431774f,     -0.031085387f,     0.018147703f,
    0.012919111f,     -0.014657460f,     0.003014416f,     -0.015736133f,     -0.008147304f,     0.028560737f,     -0.016480310f,     -0.003945773f,
    -0.026212519f,     -0.011430771f,     -0.030155793f,     -0.002110630f,     -0.010023803f,     -0.012710078f,     0.014049552f,     -0.034514301f,
    0.000694765f,     -0.030104550f,     0.008158743f,     0.001343731f,     0.007694607f,     -0.018073853f,     0.002798238f,     0.012742337f,
    0.023577822f,     -0.019037759f,     0.005327046f,     -0.022211481f,     -0.032617111f,     0.022427518f,     0.010112580f,     0.014170405f,
    -0.029901311f,     -0.013403987f,     -0.023949364f,     0.031607561f,     0.023478845f,     0.005087180f,     0.033927020f,     -0.034347367f,
    0.019087546f,     -0.027746836f,     -0.018292287f,     0.000336694f,     0.013903619f,     0.012938104f,     -0.010473239f,     -0.007349653f,
    0.019794933f,     -0.008428434f,     0.011770713f,     -0.004937683f,     -0.019950604f,     -0.026332809f,     -0.010544126f,     -0.032053992f,
    0.027400400f,     0.033423405f,     0.002089496f,     0.025436265f,     -0.026924228f,     -0.032214947f,     0.013039721f,     -0.008263256f,
    -0.004170214f,     -0.000707218f,     -0.010449159f,     0.021738274f,     0.034292486f,     -0.008338469f,     0.027999952f,     -0.005489303f,
    0.012551415f,     -0.011244996f,     0.022907756f,     -0.009269361f,     0.019465804f,     -0.035326831f,     0.013117182f,     0.020751767f,
    -0.015687743f,     -0.020225734f,     0.000511932f,     -0.028033577f,     0.016059570f,     0.023287471f,     -0.022159262f,     -0.013544816f,
    0.027540371f,     0.011402820f,     -0.014273146f,     -0.024668077f,     0.018250994f,     -0.007414163f,     0.022034122f,     0.012509841f,
    0.013679424f,     -0.035172231f,     0.004542598f,     -0.021891130f,     -0.004098105f,     0.026677568f,     0.024890952f,     0.019596493f,
    0.011605570f,     -0.015072827f,     0.023947423f,     -0.024406558f,     -0.001906195f,     -0.018038167f,     0.009791762f,     0.025101624f,
    -0.029061906f,     -0.025633043f,     -0.013568257f,     0.004653484f,     0.006316824f,     -0.031161293f,     0.013111225f,     0.007100753f,
    0.011476291f,     0.009429898f,     -0.031000510f,     -0.022162749f,     -0.021005960f,     -0.014807221f,     0.016936950f,     -0.017203366f,
    0.014078166f,     -0.033533640f,     0.012676959f,     0.018915454f,     0.012075463f,     -0.025518861f,     -0.021407435f,     -0.024281265f,
    -0.019308794f,     -0.011622106f,     -0.024391789f,     0.032403164f,     0.017902695f,     0.017364468f,     0.008397546f,     0.026306873f,
    0.034271430f,     0.006132258f,     -0.009990369f,     -0.008971691f,     -0.012521765f,     -0.016914373f,     -0.029249057f,     0.009612220f,
    0.006378199f,     -0.000915638f,     0.031872250f,     0.004793202f,     0.011988389f,     0.023488289f,     0.030397553f,     -0.001510131f,
    0.017567171f,     -0.029209014f,     -0.003710807f,     -0.014126987f,     -0.033441287f,     -0.030941594f,     -0.034855541f,     -0.035190642f,
    0.032462556f,     -0.032218680f,     0.006810261f,     -0.011833579f,     -0.021486398f,     0.018407848f,     0.029097900f,     -0.010891528f,
    -0.013369356f,     -0.011165092f,     -0.004932502f,     -0.016680157f,     0.025218837f,     0.008653841f,     -0.027648842f,     -0.000621711f,
    0.007666992f,     -0.025706174f,     0.029638257f,     0.033123069f,     0.024734361f,     -0.002307841f,     -0.018985387f,     0.033419725f,
    0.002136294f,     -0.017401764f,     0.013645463f,     0.019255280f,     -0.004208552f,     0.002309808f,     -0.025256537f,     -0.000252438f,
    0.007848229f,     0.007693896f,     -0.018924318f,     0.017019745f,     0.020130647f,     -0.032782059f,     0.005688378f,     0.002811325f,
    0.007163959f,     0.008084591f,     -0.007241300f,     0.000389827f,     0.035559781f,     0.005259241f,     -0.005617253f,     -0.027743639f,
    -0.028926332f,     0.019105678f,     0.003349764f,     -0.004181449f,     0.012755556f,     -0.019654168f,     0.002930143f,     -0.022499938f,
    0.023968510f,     0.000166105f,     -0.030533141f,     -0.020867374f,     -0.028087208f,     0.011932706f,     0.012756659f,     0.005719270f,
    0.004594288f,     -0.026240129f,     -0.016576882f,     0.024871793f,     -0.004382675f,     0.012359577f,     0.023699405f,     -0.028659001f,
    0.000713242f,     -0.014200727f,     -0.022094460f,     0.012128558f,     -0.001576981f,     -0.021651290f,     -0.003109668f,     -0.002060580f,
    0.015923867f,     0.007746288f,     -0.012687650f,     -0.005786598f,     -0.014969371f,     0.029001037f,     -0.026301095f,     -0.030015156f,
    -0.034923933f,     0.023742817f,     0.013574345f,     0.009434054f,     0.029222311f,     0.008150220f,     0.033932954f,     -0.013992630f,
    -0.031473387f,     -0.027814258f,     0.030800626f,     -0.023477031f,     -0.024577567f,     0.003358160f,     -0.009957204f,     0.018500423f,
    0.030066714f,     -0.032565571f,     0.026882326f,     0.005729714f,     -0.014731425f,     -0.009035349f,     -0.033407599f,     0.011528535f,
    0.008807480f,     0.024619142f,     0.031031057f,     0.013827116f,     0.022815561f,     -0.027080800f,     0.030661227f,     -0.002782009f,
    -0.018428927f,     -0.032614142f,     -0.023346595f,     0.020087404f,     0.011116739f,     0.003498286f,     -0.015661445f,     -0.014747245f,
    0.014992447f,     -0.029179757f,     0.017250326f,     -0.004465112f,     -0.017353004f,     0.034862317f,     -0.032093942f,     0.006323436f,
    0.035524376f,     -0.018379999f,     0.007228417f,     -0.023675196f,     -0.019167131f,     0.022925289f,     0.018149432f,     -0.031824637f,
    0.015524086f,     0.026282532f,     -0.015878653f,     0.012148713f,     0.013098168f,     -0.013523133f,     -0.001667185f,     0.018628351f,
    -0.011010315f,     0.003970002f,     -0.029206848f,     0.026234964f,     0.018763969f,     0.008238776f,     -0.035428300f,     -0.027699761f,
    -0.005357879f,     0.014906560f,     -0.009767247f,     0.020641690f,     -0.027274938f,     -0.034835175f,     0.021827141f,     0.029893804f,
    -0.024028353f,     -0.034328748f,     -0.023893945f,     0.024210041f,     -0.018639931f,     -0.023141844f,     0.002947403f,     -0.022901306f,
    -0.008812781f,     -0.030332806f,     -0.001356363f,     -0.011060358f,     0.008099645f,     -0.032587346f,     -0.030863360f,     -0.033215571f,
    0.020881735f,     0.027403513f,     0.003701461f,     -0.013283011f,     -0.014029227f,     -0.005175689f,     -0.023654062f,     -0.005405384f,
    -0.016361583f,     -0.021500954f,     0.005257198f,     0.034619968f,     0.007204192f,     -0.008511970f,     0.014811870f,     -0.005555996f,
    -0.000380904f,     0.007734810f,     -0.007258879f,     0.006738310f,     0.018324524f,     0.020485695f,     0.015060809f,     0.006430486f,
    0.029664105f,     0.033084031f,     -0.012245128f,     0.002396252f,     -0.008959553f,     -0.002851938f,     0.023151185f,     0.022733158f,
    -0.027880164f,     0.010961550f,     0.031471360f,     0.021018945f,     0.015519377f,     -0.021301139f,     0.013557767f,     0.033224087f,
    0.030676665f,     -0.014741102f,     0.006919891f,     -0.004505754f,     -0.021180741f,     -0.020226359f,     0.030002663f,     0.034156889f,
    -0.028954187f,     -0.026811853f,     -0.025842821f,     -0.014623613f,     0.022400435f,     -0.003824562f,     -0.000352438f,     0.000072117f,
    0.004290279f,     -0.008224020f,     -0.020836180f,     0.035677604f,     0.028372042f,     0.010166178f,     0.004211788f,     0.001591959f,
    0.026337685f,     0.007812155f,     0.005190006f,     0.025556792f,     0.013328076f,     -0.032003857f,     0.024817843f,     0.029742936f,
    0.007962457f,     0.027994310f,     0.008365750f,     0.025879402f,     -0.010227268f,     -0.021731373f,     0.013646178f,     0.017694082f,
    0.023067003f,     0.027453616f,     -0.020866860f,     0.030913997f,     -0.021643929f,     -0.012783916f,     -0.007795291f,     0.026612841f,
